{
    "axis_types": [
      ["z", "y"],
      ["x", "x", "y", "y", "y", "x"],
      ["x", "x", "y", "y", "y", "x"],
      ["y", "z", "x", "z", "x"],
      ["y", "z", "x", "z", "x"]
    ],
    "base_link_motion_bounds": [
      [-0.05, 0.05],
      [-0.05, 0.05],
      [0.3, 0.36]
    ],
    "ee_fixed_joints": ["gaze_joint", "LLeg_effector_fixedjoint", "RLeg_effector_fixedjoint", "LArm_effector_fixedjoint", "RArm_effector_fixedjoint"],
    "static_environment": {
      "cuboids": [{
        "name": "Torso",
        "x_halflength": 0.05,
        "y_halflength": 0.07,
        "z_halflength": 0.1,
        "rx": 0,
        "ry": 0,
        "rz": 0,
        "tx": 0,
        "ty": 0,
        "tz": 0,
        "is_dynamic": true,
        "coordinate_frame": "torso"
      }],
      "spheres": [{
        "name": "LHand",
        "radius": 0.05,
        "tx": 0.05,
        "ty": 0,
        "tz": 0,
        "is_dynamic": true,
        "coordinate_frame": "l_wrist"
      }, {
        "name": "RHand",
        "radius": 0.05,
        "tx": 0.05,
        "ty": 0,
        "tz": 0,
        "is_dynamic": true,
        "coordinate_frame": "r_wrist"
      }, {
        "name": "Head",
        "radius": 0.08,
        "tx": 0,
        "ty": 0,
        "tz": 0.04,
        "is_dynamic": true,
        "coordinate_frame": "Head"
      }],
      "pcs": []
    },
    "fixed_frame": "base_link",
    "modes": [{
      "name": "default",
      "weights": [7, 1, 0.001, 70, 20, 20, 70, 70, 5, 25, 25]
    }],
    "goals": [{
      "name": "default",
      "values": [{}, {}, {}, {}, {
        "scalar": 3.469446951953614e-18
      }, {
        "scalar": 0.05
      }, {
        "vector": [0, 0.07, 0]
      }, {
        "vector": [0, -0.07, 0]
      }, {}, {
        "quaternion": [0.9996875968066576, 8.586717804040887e-08, 0.02499417490390621, -3.4344143461351135e-06]
      }, {
        "quaternion": [0.9996876003738233, 8.590024485628413e-08, 0.024994032228013278, -3.4357565385410574e-06]
      }]
    }],
    "joint_limits": [
      [-2.08567, 2.08567],
      [-0.671952, 0.514872],
      [-1.14529, 0.740718],
      [-0.379435, 0.79046],
      [-1.53589, 0.48398],
      [-0.0923279, 2.11255],
      [-1.18944, 0.922581],
      [-0.397761, 0.768992],
      [-1.14529, 0.740718],
      [-0.79046, 0.379435],
      [-1.53589, 0.48398],
      [-0.0923279, 2.11255],
      [-1.1863, 0.932006],
      [-0.768992, 0.397761],
      [-2.08567, 2.08567],
      [-0.314159, 1.32645],
      [-2.08567, 2.08567],
      [-1.54462, -0.0349066],
      [-1.82387, 1.82387],
      [-2.08567, 2.08567],
      [-1.32645, 0.314159],
      [-2.08567, 2.08567],
      [0.0349066, 1.54462],
      [-1.82387, 1.82387],
      [0, 1],
      [0, 1]
    ],
    "joint_names": [
      ["HeadYaw", "HeadPitch"],
      ["LHipYawPitch", "LHipRoll", "LHipPitch", "LKneePitch", "LAnklePitch", "LAnkleRoll"],
      ["RHipYawPitch", "RHipRoll", "RHipPitch", "RKneePitch", "RAnklePitch", "RAnkleRoll"],
      ["LShoulderPitch", "LShoulderRoll", "LElbowYaw", "LElbowRoll", "LWristYaw"],
      ["RShoulderPitch", "RShoulderRoll", "RElbowYaw", "RElbowRoll", "RWristYaw"]
    ],
    "joint_ordering": ["HeadYaw", "HeadPitch", "LHipYawPitch", "LHipRoll", "LHipPitch", "LKneePitch", "LAnklePitch", "LAnkleRoll", "RHipYawPitch", "RHipRoll", "RHipPitch", "RKneePitch", "RAnklePitch", "RAnkleRoll", "LShoulderPitch", "LShoulderRoll", "LElbowYaw", "LElbowRoll", "LWristYaw", "RShoulderPitch", "RShoulderRoll", "RElbowYaw", "RElbowRoll", "RWristYaw", "LHand", "RHand"],
    "joint_types": [
      ["revolute", "revolute"],
      ["revolute", "revolute", "revolute", "revolute", "revolute", "revolute"],
      ["revolute", "revolute", "revolute", "revolute", "revolute", "revolute"],
      ["revolute", "revolute", "revolute", "revolute", "revolute"],
      ["revolute", "revolute", "revolute", "revolute", "revolute"]
    ],
    "mode_control": "absolute",
    "mode_environment": "ECAA",
    "nn_jointpoint": {
      "intercepts": [
        [1.5274238293001208, 1.6310169066873583, 0.8133493141906817, 1.7679646287219777, -0.005268986767202597, 0.7376695156973807, 0.8129998501254232, 0.7456466435693577, 0.6732229522641933, 0.6081720876512802, 0.6606951847408452, -0.0033004885142397674, 0.7205243723269816, 0.006336329324603961, 0.5445232597390104],
        [0.9244324815280558, -0.14769409757403285, -0.03233044486525359, -0.010005570553785474, -0.009545199351475126, 0.5235463134948977, -0.18818522720510367, 1.0056379453489268, -0.03692167506218472, 0.9845278172949437, -0.015569673524924998, 0.5227478855389496, -0.011255971236720131, 0.8368263798565932, -1.6317716417906918],
        [0.6133783434190069, -0.050322992468100694, -0.3975887766061821, -0.1182880541588997, -0.1407326175425388, -0.06194522234068364, 1.0285651915416696, -0.14898181230905322, -0.11109910004690363, -0.032306596922675256, 1.055409991343918, -0.10095228155373842, 0.39075496471175547, -0.3510927611714403, -0.10330821264551027],
        [-0.03331422965814748, -0.13591331329106965, 0.4043410217865047, 0.6212701198240621, -0.3243164439666303, 0.17878641596213082, 0.7980601933701266, -0.04580406762530811, -0.2367048297539415, 0.4906479028067747, 0.11301053241624677, 0.8364859134988789, -0.0495507196449192, -0.06738217032393884, 0.33171737878067264],
        [0.6809855881903907, -0.0591417305214787, 0.5318757575705048, -0.06799519895961109, 0.554350283258662, -0.3856433371694949, -0.3769926482743754, -0.12231244444915373, 0.8013993203513348, 0.1630973192040523, 0.393513936686463, -0.2572961101633653, -0.049704391066051734, -0.0519701081134887, -0.060409404331399796],
        [0.6138238173299779]
      ],
      "coefs": [
        [
          [-0.004413848309285943, -0.0014962840667265768, -0.0016324984960349152, -0.001545519622824372, 0.004582054184536148, -0.0011040628693431258, -0.001743383400538192, -0.001166667120561406, -0.0014117456887437125, -0.0016939966442734784, -0.0012090385130428141, -3.105386206682922e-05, -0.0013315608464609865, -0.04748659848424217, -0.0013529767870881283],
          [-0.0003945901497154784, -0.0011070112123278757, -0.0008219752925134945, -0.0009876234574373003, -0.017695139705953853, -0.0008168967509410727, -0.0007872578050487479, -0.0006465827973804687, -0.0005218865258363678, -0.0006650156201892141, -0.0007684519781349093, 6.322627680013852e-14, -0.0006185195840594333, -0.0014761218691665156, -0.0007693978885321637],
          [0.15254738204801466, 0.08344371999359596, 0.14082799195885962, 0.07639118298601218, 0.05034797028960138, 0.06925462935141193, 0.1708690420625375, 0.04557855911572875, 0.05278533430160246, 0.15872522098884717, 0.06226627379359913, -5.160354457979261e-09, 0.11724886757084713, -0.013214390125998706, 0.16077057111143583],
          [-0.004413848309289436, -0.0014962840667265768, -0.0016324984960349152, -0.001545519622824372, 0.004582054184536148, -0.0011040628693431258, -0.001743383400538192, -0.001166667120561406, -0.0014117456887437125, -0.0016939966442734784, -0.0012090385130428141, -3.105386206682922e-05, -0.0013315608464609865, -0.04748659848424217, -0.0013529767870881283],
          [-0.0003945901497154784, -0.0011070112123278757, -0.0008219752925134945, -0.0009876234574373003, -0.017695139705953853, -0.0008168967509410727, -0.0007872578050487479, -0.0006465827973804687, -0.0005218865258363678, -0.0006650156201892141, -0.0007684519781349093, 6.322627680013852e-14, -0.0006185195840594333, -0.0014761218691665156, -0.0007693978885321637],
          [0.12447344710115604, 0.08344102294360048, 0.1451431262120285, 0.07639595013493508, 0.050328733883496325, 0.07999703369608469, 0.08837234317969545, 0.09606570015527885, 0.11598592586048329, 0.14461576392244896, 0.09859859795623223, 2.6307388301253196e-12, 0.14434113722948336, -0.011753494216810491, 0.15411329860618725],
          [-0.0021191561095770363, 0.0019235117665541393, 0.0013665446055659797, 0.0016974993553452566, 0.008728044735695812, 0.0005836656259669096, 0.0013482412616634045, 0.00025656608682496785, 0.00015853210603871047, 0.0008489355229648103, 0.0006159427817180051, -5.1303156450826293e-11, 0.0003568911024537498, -0.028868018448884352, 0.000806799210066759],
          [0.0018267437493270254, 7.548669866650032e-05, 0.0003371167582185483, 0.00018123301670219292, 0.008900683190970487, 0.00036969616510348056, 0.0003728668604850014, 0.000502689433352504, 0.0006193726826939093, 0.0004976411172860689, 0.0004006070723547128, -1.7331065742921673e-05, 0.0005275332802727376, 0.0003862132155076167, 0.00039258788622140487],
          [-0.1232137254270816, 0.05563859818922977, 0.107005725190909, 0.04414062025475673, 0.013680027265719827, 0.018662208130028994, 0.10109964627533062, -0.015371316147769414, 0.05698528452728612, 0.009718582619111805, -0.008850479408005396, -2.5537438614794234e-05, -0.005193364868544399, -0.029136649463857474, -0.018663968667338736],
          [-0.0044138483092856715, -0.0014962840667265768, -0.0016324984960349152, -0.001545519622824372, 0.004582054184536148, -0.0011040628693431258, -0.001743383400538192, -0.001166667120561406, -0.0014117456887437125, -0.0016939966442734784, -0.0012090385130428141, -3.105386206682922e-05, -0.0013315608464609865, -0.04748659848424217, -0.0013529767870881283],
          [0.1393489162382418, 0.02091605581065325, 0.022341991327609802, 0.02102184722985568, -0.009979320319176938, 0.013640051102034235, 0.023900485094464696, 0.013928976092278096, 0.01727975650885479, 0.02257609076888031, 0.015274908761704988, 2.98730184280623e-11, 0.016436197246845523, -0.005061022071412168, 0.017823018363953266],
          [-0.48256071695823893, -0.001281624911901185, -0.0022368953631712878, -0.0066641670164273616, 0.05171742873024796, -0.010893958847876183, -0.022691662379864693, -0.013226634619685856, -0.028102516405973745, -0.005134250816840085, -0.01119467397071178, -5.513984074949404e-08, -0.014687076921668086, 0.0008280069313830004, -0.017887166199514696],
          [-0.004413848309285483, -0.0014962840667265768, -0.0016324984960349152, -0.001545519622824372, 0.004582054184536148, -0.0011040628693431258, -0.001743383400538192, -0.001166667120561406, -0.0014117456887437125, -0.0016939966442734784, -0.0012090385130428141, -3.105386206682922e-05, -0.0013315608464609865, -0.04748659848424217, -0.0013529767870881283],
          [0.13428594692571935, 0.02091605581065325, 0.022341733228948103, 0.02102184722985568, -0.009979320319176938, 0.013640051091451253, 0.02390065705396427, 0.013928979709422416, 0.017278507682267824, 0.022582110376902446, 0.015274906564012208, 2.98730184280623e-11, 0.016436196942573502, -0.005061022071412168, 0.017822956451076722],
          [-0.5109919381887204, -0.0012816245445080561, 0.0039528708904565295, -0.006664167094313194, 0.05171741836003366, -0.013041047959168495, 0.00611744691082393, -0.023770167137328962, -0.01475152986013928, -0.02621525143978711, -0.01395565495484472, -7.051989398920071e-14, -0.01858467142109669, 0.0008135576560814265, -0.004439151825007293],
          [-0.004413848309287231, -0.0014962840667265768, -0.0016324984960349152, -0.001545519622824372, 0.004582054184536148, -0.0011040628693431258, -0.001743383400538192, -0.001166667120561406, -0.0014117456887437125, -0.0016939966442734784, -0.0012090385130428141, -3.105386206682922e-05, -0.0013315608464609865, -0.04748659848424217, -0.0013529767870881283],
          [0.12289905363107567, 0.02091605581065325, 0.022341954059071453, 0.02102184722985568, -0.009979320319176938, 0.01364005110573613, 0.023902194134639315, 0.013928979588250954, 0.017277681089069755, 0.022580223872450286, 0.015274904142991968, 2.98730184280623e-11, 0.01643616550667547, -0.005061022071412168, 0.017822985647053344],
          [-0.43773682351831716, -0.0012816253249603952, -0.0019791068027675877, -0.00666416695102246, 0.05171742639059901, -0.014766566199764599, -0.012831422221434144, -0.02312090855277356, -0.002098296358659362, -0.0029805399397789794, -0.010455563539361439, -7.617191378023208e-05, -0.022812010952968857, 0.0008172709620813408, -0.010591248070930709],
          [0.027457160686801693, 0.009585091790150347, 0.010526789824820965, 0.009771116907735947, -0.04609083225781814, 0.006048951531784441, 0.011303480628647668, 0.006286253247599885, 0.008070521277354517, 0.010656661107359326, 0.0068952387609062206, 8.848922561655812e-09, 0.007579818487662922, 0.025218198913503815, 0.00816903900731526],
          [-0.010432230556137767, 0.0036297496294210433, 0.002172815387570731, 0.0030164553946719613, 0.004283224602103881, 0.0008657080712265051, 0.002042176871145582, -1.3325426507005175e-05, -0.0005197522311625604, 0.0009128570778518684, 0.0008223011220474708, 1.0979264339290363e-07, 4.433947427978759e-05, -0.013547940312970942, 0.0011370114265364243],
          [-0.11464099335914986, 0.024848795026334577, 0.03849433350433682, 0.023777694319051416, 0.003578682565694004, 0.014758464857816758, 0.053033943831321186, 0.016481133700858373, 0.03560911607926289, 0.058939158049230125, 0.01991948160521646, -1.2386537262586628e-08, 0.02955837162728528, 0.029498250474654687, 0.029384986377567906],
          [-0.0005887866306132396, -0.0018049752590879671, -0.0015789471841792806, -0.0017043613370488334, -0.005011225634563856, -0.0012564307357229585, -0.0016170076508200575, -0.0011794393982057388, -0.0012041038068255389, -0.0014798883203083683, -0.001300735072842731, -1.1583567006988787e-06, -0.0012547535396985104, 0.02476816313249923, -0.0014016808509062153],
          [-0.0099546371657467, 0.003156095412114365, 0.0016583341137071219, 0.002550328547828187, 0.008924166865116268, 0.0006220623892349979, 0.0014622576265808467, -0.00025954187915867394, -0.0008652948178898385, 0.00035869392256709785, 0.0005323160981287361, 2.606021431160798e-07, -0.0002748157295739776, 0.0037935236241470596, 0.0007655804302223857],
          [-0.017084950814903948, 0.010639780387137985, 0.016043971911906728, 0.010351631658482281, -0.0619299151916185, 0.005144163266318734, 0.016991220752143148, 0.005111667561869547, 0.013597111220787416, 0.018321486231211586, 0.006813933065626216, -3.305227570676585e-05, 0.007873272062432357, -0.012713021079907997, 0.009903630656661016],
          [-0.0004985867932540056, -0.0018049752590879671, -0.0015789471841792806, -0.0017043613370488334, -0.005011225634563856, -0.0012564307357229585, -0.0016170076508200488, -0.0011794393982057388, -0.0012041038068255198, -0.0014798883203065716, -0.001300735072842731, -1.1583567006988787e-06, -0.0012547535396985104, 0.02476816313249923, -0.0014016808509062153],
          [-0.010191310180409857, 0.003156095412114365, 0.001658441033553561, 0.002550328547828187, 0.008924166865116268, 0.0006220624029901683, 0.0014595854443993131, -0.00025953904685294094, -0.0008667485554306689, 0.0003628428237624294, 0.0005323142523476333, 2.606021431160798e-07, -0.00027486346948532966, 0.0037935236241470596, 0.000765277349073575],
          [-0.032164847987339124, 0.010639780387137981, 0.013723494118307667, 0.010351631658482281, -0.06192991519161819, 0.005143689522511472, 0.020506244336635376, 0.005398717392596792, 0.009625300358594291, 0.017812040279297954, 0.0072269854799119, -4.675745607526521e-07, 0.009755851329947433, -0.012713022489412567, 0.011021952268579837],
          [-0.0006865533185668033, -0.003031581458816132, -0.0026828522572878927, -0.002885050966792111, 0.016271689078166958, -0.0020974989758048793, -0.0027207448437048605, -0.0019488730821925083, -0.0019678578958668897, -0.0024411902232606758, -0.002162134558762815, -3.8436526254918514e-14, -0.0020634318645748936, 0.03473767145133559, -0.002325034854193488],
          [-0.00998141394058449, 0.0041471029549200854, 0.0026587734746739396, 0.003502972014204951, 0.010032198919281279, 0.0011887750142451096, 0.002557682184225663, 0.0002525969607412826, -0.00022434771872295183, 0.0014017315504926782, 0.0011553691671451877, 2.0863324297983429e-13, 0.00034364573624030614, 0.006298400380455746, 0.001518534243821716],
          [0.006680930857559086, 0.007963815234546916, 0.011542384903873965, 0.008090641623943321, -0.07942856980067216, 0.0038789961367016574, 0.013350310566596918, 0.0042266814656170566, 0.00729714640731732, 0.012445103058397942, 0.005379019119283153, -7.118213773499406e-07, 0.006428519378849269, -0.018054872643371033, 0.007797463851182874],
          [-0.00441384830928572, -0.0014962840667265768, -0.0016324984960349152, -0.001545519622824372, 0.004582054184536148, -0.0011040628693431258, -0.001743383400538192, -0.001166667120561406, -0.0014117456887437125, -0.0016939966442734784, -0.0012090385130428141, -3.105386206682922e-05, -0.0013315608464609865, -0.04748659848424217, -0.0013529767870881283],
          [-0.14931788367885068, -0.021719393301004506, -0.023259863873417132, -0.021840201920981413, -0.009731049866041458, -0.014200545979166724, -0.024913165990221097, -0.014510232528358676, -0.01803283708781654, -0.023574353380032297, -0.01590178730631379, -7.059960510636553e-07, -0.017130311808407003, -0.0004212366373807498, -0.01855913141435403],
          [-0.39308106509534735, -0.0012816249602162126, 0.0077678095020013, -0.006664167150207447, 0.051717421371409486, -0.013341428307167162, 0.004415711869851722, -0.023146911956353707, -0.024822973325234587, -0.028700315948988545, -0.008787714559289696, 2.2018975896754788e-07, -0.025211563012297145, 0.0008178341722599568, -0.005053669710916446],
          [-0.004413848309283378, -0.0014962840667265768, -0.0016324984960349152, -0.001545519622824372, 0.004582054184536148, -0.0011040628693431258, -0.001743383400538192, -0.001166667120561406, -0.0014117456887437125, -0.0016939966442734784, -0.0012090385130428141, -3.105386206682922e-05, -0.0013315608464609865, -0.04748659848424217, -0.0013529767870881283],
          [-0.14230060139728187, -0.021719393301004506, -0.023259874938642417, -0.021840201920981413, -0.009731049866041458, -0.014200545973698332, -0.02491173914069434, -0.014510232723479182, -0.01803263889639695, -0.023573057231738276, -0.01590178755076765, -7.059960510636553e-07, -0.01713047756472138, -0.0004212366373807498, -0.018559322645959157],
          [-0.5117314296489609, -0.001281624654642063, -0.01398312454160551, -0.0066641670072782305, 0.05171742138349586, -0.011444564175190037, 0.014867482923160742, -0.016825080099842685, -0.027404632023558473, -0.035238934432175135, -0.01641668240864096, -7.568116523847028e-13, -0.027885186251327083, 0.0008190831785730752, -0.0005622809781900122],
          [-0.004413848309287783, -0.0014962840667265768, -0.0016324984960349152, -0.001545519622824372, 0.004582054184536148, -0.0011040628693431258, -0.001743383400538192, -0.001166667120561406, -0.0014117456887437125, -0.0016939966442734784, -0.0012090385130428141, -3.105386206682922e-05, -0.0013315608464609865, -0.04748659848424217, -0.0013529767870881283],
          [-0.13604373346667054, -0.021719393301004506, -0.023260051925141946, -0.021840201920981413, -0.009731049866041458, -0.014200545987182818, -0.02491039685945038, -0.014510233246310593, -0.01803205843175711, -0.02357117737005059, -0.01590179143214642, -7.059960510636553e-07, -0.017130405926604367, -0.0004212366373807498, -0.01855927997276674],
          [-0.47721118588145284, -0.001281624781554291, -0.007567322786695067, -0.0066641671429015364, 0.051717427780764165, -0.012927912478948018, 0.0007599387296800436, -0.012317190177705667, -0.02477544433504883, -0.022883134200387834, -0.009204737407506656, -6.35881329688576e-07, -0.016967932868108267, 0.000812372848393261, -0.0108390489649069],
          [0.023252674280995082, 0.01143436190683634, 0.01179580393343028, 0.011386056606573743, -0.03876272525786323, 0.007059091165224166, 0.012517746439933811, 0.0070258738669730396, 0.008585392469986963, 0.011537372099807151, 0.007879384424706247, 3.4361774623173245e-10, 0.008304114702840735, 0.028506312440136718, 0.009222096562863564],
          [0.007588008805853954, -0.004717321928744588, -0.003550194974729614, -0.004113988434007094, 0.004509814182801342, -0.001193474791469243, -0.0036567276453043996, -0.00030691575945565694, -0.0002779455773946902, -0.0023524383245348518, -0.001331572589767399, 5.10730599329407e-07, -0.0006513666760536298, 0.010099428199679003, -0.001963257818067929],
          [-0.11370392461611029, 0.024800937743068272, 0.04265720693668872, 0.023766898045219892, 0.0003275640851539136, 0.015610090550640504, 0.04573984578864474, 0.015873931971652468, 0.03806568904455536, 0.06371022339342916, 0.019497271962152944, 2.1749201326043512e-13, 0.024627294948922327, 0.034524213343267184, 0.03644664955993309],
          [-0.0032316593763756477, -0.0009466404202771932, -0.001076276294836475, -0.0009902290414372677, -0.0055121308376785885, -0.000914433567527968, -0.0011451496916024524, -0.0010158905320866351, -0.0011694934985641303, -0.001211604753052364, -0.0009809611737249138, 2.503662237943345e-10, -0.001096270563897278, 0.025517015788571514, -0.0010393139118588055],
          [0.028939338820008605, -0.0030201209656371326, -0.002242774665657511, -0.0024549268230448927, -0.003338487874631927, 0.00014111258293263208, -0.00197194079806397, 0.001015686421108734, 0.000815863958035414, -0.0014816161476279143, 2.957978574061779e-05, 1.1817976404970436e-09, 0.0007530927711015191, -0.0006294515808940913, -0.0005438091187180002],
          [-0.08249500577820358, 0.009306670222031462, 0.017177150111910063, 0.009420249617526745, -0.05878373615354429, 0.004717199132448536, 0.018105523805919125, 0.005924660000754778, 0.016402065427370036, 0.02778623401683846, 0.006930468247010543, 4.433536383435473e-12, 0.01038818038733219, -0.013132347197584318, 0.011065683520563226],
          [-0.0031518673398762487, -0.0009466404202771932, -0.001076276294836475, -0.0009902290414372677, -0.0055121308376785885, -0.000914433567527968, -0.0011451496916024672, -0.0010158905320866351, -0.0011694934985641003, -0.001211604753053374, -0.0009809611737249138, 2.503662237943345e-10, -0.001096270563897278, 0.025517015788571514, -0.001039313911858805],
          [-0.006817136726110969, -0.0030201209656371326, -0.0021483243732048603, -0.0024549268230448927, -0.003338487874631927, 0.00014122997291601244, -0.0020877160381757498, 0.0010173322571169015, 0.0010817318281933716, -0.0010861870183983629, 4.396846526116838e-05, 1.1817976404970436e-09, 0.0006787851383544216, -0.0006294515806794025, -0.0006996545592721422],
          [0.028170486118928428, 0.009306670222031473, 0.01456616702020935, 0.009420249617526745, -0.05878373615354271, 0.004720677157821393, 0.022371557137313824, 0.005633170060984383, 0.010308404907876954, 0.018185851407623636, 0.006622057071054612, -8.667341474471288e-13, 0.01120070480398496, -0.013132356421003867, 0.009897947057845528],
          [-0.002205332840599059, -0.0018645445426432997, -0.0017754978901050704, -0.0018215795394435508, 0.012168204413570116, -0.0013030268063846042, -0.0018376890194644097, -0.0012797157756768392, -0.0013946935043057762, -0.0017057986620547373, -0.0013831840942936117, -3.781547216473368e-06, -0.001399532468850822, 0.03548967792769367, -0.0015162699085070495],
          [0.0187127603834462, -0.004834389090652429, -0.005782410785006033, -0.004403436080475145, -0.0015555847131217104, -0.0010714708897279575, -0.0071292363196006365, -0.000511537604433523, -0.0028779358865429396, -0.006239164346990319, -0.001616096963209997, -3.7869347220357796e-06, -0.0017951701464493381, -0.001815957274239466, -0.0028744047239746932],
          [0.013661996948046366, 0.004842183818078315, 0.008855782080567207, 0.005397388875477191, -0.07564445387546614, 0.0022804462071947915, 0.013772177357767564, 0.003110088744093171, 0.009533541484653177, 0.009201264301526518, 0.0036031256889304682, -4.919365868918584e-06, 0.004824438122216661, -0.01639029746349098, 0.006655995059245671],
          [-0.0044138483092870185, -0.0014962840667265768, -0.0016324984960349152, -0.001545519622824372, 0.004582054184536148, -0.0011040628693431258, -0.001743383400538192, -0.001166667120561406, -0.0014117456887437125, -0.0016939966442734784, -0.0012090385130428141, -3.105386206682922e-05, -0.0013315608464609865, -0.04748659848424217, -0.0013529767870881283],
          [0.395209710276473, 0.040157456515313265, 0.04487373746320807, 0.0401559538188683, -0.009693329131080319, 0.027263141867884855, 0.04850749192587052, 0.028064761556454827, 0.03612537845317041, 0.04724849919870845, 0.03087118936135347, -9.531058526482344e-06, 0.03334847179911826, -0.007392835671715766, 0.03662902339786062],
          [0.1686364246687843, 0.073632626894501, 0.07798368372383951, 0.06675988477699102, 0.05060580076289991, 0.058570051227703826, 0.07550716444684008, 0.058950996678080625, 0.030736567644099898, 0.11211930051004551, 0.10211210960335139, 9.22757601041408e-09, 0.09731063556909557, -0.010899719322065422, 0.10838546030781204],
          [-0.004413848309287826, -0.0014962840667265768, -0.0016324984960349152, -0.001545519622824372, 0.004582054184536148, -0.0011040628693431258, -0.001743383400538192, -0.001166667120561406, -0.0014117456887437125, -0.0016939966442734784, -0.0012090385130428141, -3.105386206682922e-05, -0.0013315608464609865, -0.04748659848424217, -0.0013529767870881283],
          [0.4143430970418779, 0.040157456515313265, 0.04488738854164333, 0.0401559538188683, -0.009693329131080319, 0.027261547587975353, 0.04855977950854176, 0.02803662349493508, 0.03602669909340559, 0.04774423089413369, 0.030857570032919824, -9.531058526482344e-06, 0.03342670514601932, -0.0073928356748418364, 0.03667995993155279],
          [0.27332953764053747, 0.0736326206641805, 0.08047278850101344, 0.06675746073913308, 0.05059709239477151, 0.06906484347367398, 0.09299954859458559, 0.08875451891726785, 0.1424373599059974, 0.08894306900894391, 0.07983010236484617, 1.6690678008748782e-12, 0.1023863242273444, -0.009820192835348577, 0.08388668801599626],
          [0.008285479327819695, 0.00015967732949103208, 0.000619108607561954, 0.0003259229139589633, 0.004999690222765108, -0.00032001788759875634, 0.00076807622578149, -0.0001980262533425263, 0.0002247498295476479, 0.0006623627007240302, -0.0001466611749226017, -1.2542117682833944e-12, 6.351726953119776e-05, -0.006749734119561687, 8.784399789816283e-05],
          [-0.0746754126306452, 0.018915008561418645, 0.022120181257126562, 0.01803459595534959, 0.005853967370254841, 0.01035825628518127, 0.02316620338287618, 0.009863704114143229, 0.016890365317753963, 0.0299917713052618, 0.013648528458251858, 1.4784868762455368e-10, 0.014888998229458971, -0.002617772229928388, 0.01778990681689344],
          [-0.29315883801959447, 0.03815178347837061, 0.10387248149898147, 0.03337173520365937, -0.05279973893510402, 0.04477654426878754, 0.06936115227385592, 0.044974188676284665, 0.07243969014141659, 0.09182063958190627, 0.05405325793022107, -3.4750143683633783e-09, 0.07068330365738842, -0.015464014349466326, 0.09167384006609196],
          [0.0018856250911378953, 0.00015967732949103208, 0.0006191086883622205, 0.0003259229139589633, 0.004999690222765108, -0.00032001788759870506, 0.0007680755791737154, -0.00019802625326162079, 0.00022474989561224458, 0.000662371214520385, -0.0001466611750009651, -1.2542117682833944e-12, 6.3517228552263e-05, -0.006749734119561687, 8.784395298828351e-05],
          [0.017239971843492508, 0.01891500856141834, 0.026258149194638536, 0.018034595955349376, 0.0058539673697673425, 0.010419305625866978, 0.030323412172906433, 0.010594273848542855, 0.021277696576507077, 0.026846574473993617, 0.01362274907296249, -1.3641769374416222e-07, 0.015323755557181507, -0.0026177408087839876, 0.016988321565223216],
          [-0.033483246525730107, 0.03815281895440168, 0.028732899737900185, 0.033372082427416176, -0.05278783863954742, 0.030780258399634365, 0.08131992179840328, 0.016544241224442095, 0.06819187780165409, 0.021790798689080886, 0.043125903605427875, 3.782104274982007e-11, 0.00924451507790459, -0.014810167498803362, 0.09211317336404418],
          [0.0035051978829842194, -0.0015536435270652078, -0.0008127692311727865, -0.0012813169025917026, -0.000527211211836128, -0.0017102202748661393, -0.0006548442393527909, -0.0015015285829986466, -0.001002908982337769, -0.0006660587645202525, -0.001529737296994464, 2.3480761774582252e-08, -0.001241858213638603, 0.1069829987373699, -0.0013156479426009212],
          [-0.05362908300837886, 0.007428909586288719, 0.010714074431041555, 0.006549406322569023, 0.04350166179099017, 0.0018708460890196053, 0.021063740091239395, 0.0022549152267912756, 0.011989531575514184, 0.023093182278356175, 0.004002202295212181, 3.213704654263231e-11, 0.003925266284539157, 0.020969533676875877, 0.007972446844256383],
          [-0.33371689793199305, 0.024010215740863997, 0.09524528652834442, 0.02003279304424168, -0.05182599528596571, 0.03380855497897865, 0.0333868232772729, 0.014578681277650619, 0.0011410693059473182, 0.11789938075433826, 0.023149572323443952, -4.678581431758649e-06, 0.019193898034668127, 0.0160658917528212, 0.05059534921135613],
          [0.00499853993721317, -0.0015536435270652078, -0.0008128160145957699, -0.0012813169025917026, -0.000527211211836128, -0.0017102202703921864, -0.0006551019287329462, -0.0015015293112216244, -0.0010026988076532652, -0.0006642679692076314, -0.0015297379670369802, 2.3480761774582252e-08, -0.0012418528790335756, 0.1069829987373699, -0.0013156551469410333],
          [-0.09306898531534813, 0.007428909586289847, 0.009804266401953024, 0.0065494063225689505, 0.04350166178757283, 0.0018292767864509923, 0.012333478607854921, 0.001851476819607557, 0.006712946041734304, 0.01150226970889787, 0.003992935053314701, 1.8403039729562003e-08, 0.003840180182762571, 0.02096951240414726, 0.006551618660779728],
          [-0.07297519109996764, 0.024010379501231513, 0.1049866837799378, 0.020032436568745645, -0.05181879600091366, 0.010712699344153451, 0.09356342626807701, 0.0025395884814729953, 0.047385006926393594, 0.14631896848547746, 0.056499298078883625, -1.3880756058909079e-05, 0.05235656876188639, 0.01668509990180019, 0.09365296929651966],
          [-0.004413848309289193, -0.0014962840667265768, -0.0016324984960349152, -0.001545519622824372, 0.004582054184536148, -0.0011040628693431258, -0.001743383400538192, -0.001166667120561406, -0.0014117456887437125, -0.0016939966442734784, -0.0012090385130428141, -3.105386206682922e-05, -0.0013315608464609865, -0.04748659848424217, -0.0013529767870881283],
          [-0.3628204680188883, -0.04100140475795362, -0.04600943804760269, -0.041027221055930325, -0.00909155926121408, -0.02787782585277097, -0.049494816094493424, -0.02875795214606714, -0.03744206444317076, -0.05004995705432643, -0.03160117883716057, -6.440814164205951e-10, -0.03441130376168964, 0.001162582859037431, -0.03743320587651567],
          [0.19770963547871792, 0.07363199779160291, 0.11144011511912531, 0.06675840864852811, 0.050589662842548073, 0.06865687704581364, 0.18250281314883493, 0.053824546313941124, 0.14249798331334232, 0.13202457446636898, 0.10159666040530581, -4.721752295521342e-13, 0.08237619747432201, -0.00985468588389268, 0.05890620132738517],
          [-0.004413848309286721, -0.0014962840667265768, -0.0016324984960349152, -0.001545519622824372, 0.004582054184536148, -0.0011040628693431258, -0.001743383400538192, -0.001166667120561406, -0.0014117456887437125, -0.0016939966442734784, -0.0012090385130428141, -3.105386206682922e-05, -0.0013315608464609865, -0.04748659848424217, -0.0013529767870881283],
          [-0.3816996302415542, -0.04100140475795362, -0.04596575542506599, -0.041027221055930325, -0.00909155926121408, -0.027880023908387314, -0.04957717986220675, -0.0287203800551982, -0.03685156695237217, -0.04886388121249661, -0.03159757222771601, -6.440814164205951e-10, -0.03434474500841132, 0.0011625828565458144, -0.037423800667101596],
          [0.24871699866709998, 0.07363118855190838, 0.15702734743828325, 0.06675945225527098, 0.050606918035384925, 0.06765429447516513, 0.0691269643334984, 0.08663697313757673, 0.03612788482286323, 0.13528198898442728, 0.10168099617669671, 4.230714311718811e-13, 0.06620734095667244, -0.010721846917492818, 0.0878203280056289],
          [0.0059037744245603345, 0.00036577602149351265, 0.0006955537366101708, 0.0004800639355862497, 0.0037933007895706032, -0.0002795070000282795, 0.0008285901449036219, -0.00022052373851470266, 0.00014787644555086543, 0.0006547423752225124, -0.00011675205837529757, -2.2360984110545435e-09, 3.2892399110765144e-05, -0.0008653678766104598, 0.00012689786417997414],
          [-0.011741052913320593, -0.017714950482412388, -0.01915173670198345, -0.016686480281816764, 0.00657747633283309, -0.009388424640132216, -0.02957370506597968, -0.009072888368161032, -0.013798957066255285, -0.026192393101786976, -0.011789094661093196, 5.772955899697523e-10, -0.012824776792923261, 0.005445424802351032, -0.014361799567101131],
          [-0.2337900297301274, 0.038698405470572704, 0.08899861823707594, 0.03401985024536488, -0.054179136400838095, 0.04740383310172216, 0.08522457556862753, 0.0570560720241326, 0.1001896475278738, 0.11292825334078035, 0.04879075211751487, 8.91873474715798e-09, 0.0472146726956362, -0.011760927083787162, 0.10650740403275726],
          [0.002231024911416517, 0.00036577602149351265, 0.0006955536055909529, 0.0004800639355862497, 0.0037933007895706032, -0.0002795070000282654, 0.0008285939051846991, -0.00022052373860232267, 0.00014787646194273454, 0.0006547360648919208, -0.00011675205834807665, -2.2360984110545435e-09, 3.2892371697270886e-05, -0.0008653678766104598, 0.00012689793083014007],
          [0.0598931753599074, -0.01771495048241272, -0.02111795185702572, -0.016686480281816716, 0.006577476332759603, -0.009323748828695352, -0.024483482886175426, -0.009155615713226135, -0.012006671825223443, -0.03265252304970528, -0.01110580067242608, 3.7157886214345643e-11, -0.011857437390889253, 0.005445415049352158, -0.015318832180059893],
          [-0.12779012521583175, 0.038695836934344294, 0.10838039067015023, 0.03401984706580348, -0.054175797092595124, 0.040223245203908325, 0.03412209506785071, 0.01300698334628184, 0.013067374372045852, 0.0868313347002542, 0.056050284626645595, 2.085411994657159e-13, 0.012640254094481973, -0.011513489086720575, 0.07398504008359766],
          [0.0018795034345103147, -0.0003199559812128729, -1.798794791291017e-05, -0.0002262994087627506, 0.0010428836449387863, -0.001108475021539029, 9.727023544869369e-05, -0.001108535529875854, -0.0007781686185869386, -0.00016428086268252713, -0.0009488100308940077, -4.596629386051914e-12, -0.0008597604616056155, 0.09640657746649206, -0.0006824837357513808],
          [0.07834022638311572, -0.010446683820574483, -0.015865942639455507, -0.009674671075929403, -0.01128904686247759, -0.004159580645927199, -0.02324686986162803, -0.004981998408266282, -0.01742932917404478, -0.025790727450455714, -0.006834095772965954, -5.250289577447778e-10, -0.007710342935940204, -0.010984991356207787, -0.010605754144464323],
          [-0.2644036228250534, 0.025211366667666484, 0.09106308327705098, 0.021589024378709125, -0.05263732711848262, 0.029758933843339542, 0.08779064361584384, 0.05154337998342966, 0.03568878573008012, 0.018513180682029725, 0.03372611023932784, -8.632539772312331e-06, 0.03426684497117648, 0.012963313592680803, 0.06818791416790625],
          [0.0010406875720182364, -0.0003199559812128729, -1.802612367688978e-05, -0.0002262994087627506, 0.0010428836449387863, -0.0011084750175642242, 9.631533584821041e-05, -0.0011085337546284538, -0.000779130202373783, -0.00016732814911880775, -0.0009488096168437167, -4.596629386051914e-12, -0.0008597825876625033, 0.09640657746649206, -0.0006823728259875142],
          [0.085073998641136, -0.010446683820575148, -0.019580534089722827, -0.009674671075929358, -0.011289046863082653, -0.004231910849408926, -0.01992712229375562, -0.004261888330008021, -0.018406901598369548, -0.030681455149252815, -0.006198233456222171, -1.9347926013468964e-12, -0.008164165648043002, -0.010984994198522053, -0.00999325367231511],
          [-0.1308080290679686, 0.025209865942708628, 0.0726148854334813, 0.021588917523122093, -0.05262930290099688, 0.00660699957837019, 0.06643845600163217, 0.05010300208162213, 0.07587428740458525, 0.12447186728805763, 0.05365635261875318, -7.87861316265046e-12, 0.06631119224354308, 0.013492426891285297, 0.05191800270870709]
        ],
        [
          [0.4456113259409814, -5.74202290222871e-10, -5.588436001598998e-10, 3.5924049036437947e-10, 2.8695518997605434e-08, 0.5941700645786664, 4.311435024828683e-08, 0.479741127604307, -1.5042722408527051e-05, 0.34722040214628, -1.8004601069601786e-10, 0.7011027801544244, -4.93573546216066e-07, 0.6009330703421311, -1.2234779844889472],
          [0.47011832152647826, 3.0069095712784626e-12, 1.1297829107713946e-05, 1.95536e-319, 5.5650069522226346e-09, 0.42609400591478513, 2.487881622658341e-06, 0.07707615673429219, -4.765e-319, 0.36487348608369646, -7.361321248655479e-12, 0.3607210390629503, 1.017616853418687e-05, 0.22894951916073, 0.392154668548811],
          [0.13172897761146998, 3.108749442090131e-10, -1.6257103581339314e-10, 8.478500648144409e-11, -4.642230283037619e-11, 0.4553137604267072, 7.970582358205943e-06, 0.003979023656738884, -3.6586433686016414e-11, 0.09770001328653788, 8.151217365492213e-12, 0.5200563515137177, 1.4164775536227567e-08, 0.44275471521065896, 0.20240445433277338],
          [0.4479432821731621, -6.83362129132765e-07, -3.411201567980669e-12, 1.663026064291816e-06, 1.5394602594245985e-11, 0.12495226460106486, 1.546980401909459e-07, 0.39377153810245247, -1.1363736800391347e-10, 0.0482555677392438, 1.93006751877332e-12, 0.4054535000153587, 4.432037093574204e-11, 0.39135828197040284, 0.3166755532162045],
          [0.07047259688334562, 1.255246503345099e-06, 1.6641438593746232e-09, -2.379360156283713e-12, 1.1928183772415254e-08, 0.09288742494869862, -1.8559315728357353e-06, 0.07743072694650839, -1.8241843866790597e-10, 0.055339776262521526, 4.8256158006013004e-08, 0.10379317378572425, -2.6087941453062975e-12, 0.10110277843089174, -0.08496573779990754],
          [0.0021761502542598033, 1.288527493702701e-12, -2.1688e-319, -6.064943910713876e-05, -4.812477519609518e-05, 0.10446564226818483, 3.019773936336246e-10, 0.23986257488172058, 5.908443709767463e-09, 0.10505830873232996, -2.2413768077069913e-12, 0.25048497265017716, 2.882117047265088e-07, 0.4426158720271839, 0.2068033515254994],
          [0.3329414521981625, -5.146061357559794e-11, -6.614738019967972e-07, 1.6592727943284013e-13, -2.1441654401756606e-05, 0.26667979675080444, 9.079678384100381e-05, 0.42851344905403926, -1.1673049562583782e-07, -0.020112520983128063, -7.720531657245746e-11, 0.361805077594587, -2.6414084992821986e-05, 0.4528144259561149, 0.16990403374384508],
          [0.058862723875046916, 1.5743055278315698e-10, 7.016224617639013e-12, 2.774303557218664e-08, -4.333267686755173e-13, 0.28843656395382244, 3.891457137544087e-12, 0.05037285435843718, -3.2446642223548966e-05, 0.12017260794430039, -1.3157159943458197e-10, 0.23274082660746662, 2.1126206866975614e-13, 0.3761743250523519, 0.11492013153591944],
          [0.03410102888982509, -7.184971168659831e-12, 2.8600663260345366e-05, 3.291730461795379e-06, -4.066187253727396e-13, 0.40423394074926616, -1.2316220300494404e-12, 0.09928597827213864, -2.156610658420072e-10, 0.18360349357127848, -2.036131403604499e-13, 0.3109949443902074, -2.453905707368106e-06, 0.28505729375563815, 0.020395599565879902],
          [0.23218812478836168, 2.2917420317947472e-07, -2.6759409468758214e-12, -6.412185708823813e-08, 4.281724555339468e-10, 0.3034386867773547, -3.389297874243551e-10, 0.37359542952302993, -1.2093960931430874e-12, 0.1736329050486774, 3.252136355260512e-07, 0.3802555119317117, -1.1778110821877205e-07, 0.2827341809743606, 0.08563997905612526],
          [0.26207592567801813, -8.159579640135705e-12, 2.0299046452927818e-10, 7.578673281821134e-09, 2.572306511549902e-13, 0.4375750688932889, -1.339363662906944e-12, 0.13235871527156068, 4.14407e-319, 0.025435551584383834, -3.445779417299905e-06, 0.42193801330448, 9.439479230961491e-07, -0.014009304949296897, 0.18183667170692785],
          [-2.0784363235878538e-13, 1.1709108038580563e-10, -8.618025451713196e-10, -3.230346870056201e-10, 4.4885e-319, -1.6352206073998384e-13, 1.3351299059021761e-09, -1.9233785809379644e-09, -1.326041182393604e-06, 1.3748160616110186e-05, -8.635341412875406e-11, -2.412945588483657e-08, 7.847057288620363e-07, 1.8670530327858484e-12, -1.1883646634373902e-06],
          [0.18585734314058788, -1.9396749411068907e-07, 3.610500958337304e-08, 4.2218575613622394e-06, 1.1630862000566964e-11, 0.2004708682192242, 8.233175259123474e-13, 0.11349020295830667, 2.529093671568653e-07, 0.15311391897291546, -1.3590036007986326e-08, 0.21366288480921375, -4.510541171609583e-07, 0.4554986205801415, 0.08890069926816746],
          [0.061684392456792886, 4.359063006577334e-09, -8.451651051410616e-08, 3.0419625464861405e-07, -8.704529111049642e-14, 0.08122939495939169, 2.4541294016027105e-10, 0.0677576925784236, 7.355256498477839e-10, 0.048460923496242064, 3.5936050754877426e-10, 0.09072327890641056, 3.0778988818189337e-13, 0.08838105641638899, -0.08969251569568935],
          [0.0623324343951566, 1.0659620342502373e-11, -6.31802239040384e-10, -4.14332054465418e-11, 2.7298686834641786e-08, 0.4047695956772792, 2.8711140161310837e-09, 0.33181627401449487, 2.1642955062833837e-12, 0.15597805581593635, -7.7419388134203e-12, 0.12231301505195753, -9.56276730300849e-10, 0.3738075871403449, 0.1799337398152584]
        ],
        [
          [0.2209676644557186, -5.623188177107732e-08, -2.237416324288071e-08, 1.1888703257987854e-13, -3.4454334921323165e-11, -2.597739443619349e-05, 0.4333375179035051, 1.8867218350627035e-08, 1.333959397913909e-06, 4.559039407820218e-09, 0.15862299348784784, 6.289385796109885e-12, 0.6268020279627294, 1.2792917845816778e-05, 3.0301749985508335e-12],
          [1.1471486416186133e-11, -2.1879050092131263e-06, -9.840723545155434e-08, 7.950930992954483e-10, 3.046174273574262e-07, 2.9009463014594726e-08, 5.382159832816319e-12, 3.336825869892725e-11, -3.5344234273937364e-06, 2.8986211829868786e-06, -6.308891577594758e-14, -2.787965629485922e-07, 2.051437389848159e-08, 2.4162706366112325e-12, 1.30546648199546e-08],
          [1.0406561310328396e-05, 4.957114068787052e-12, 7.156713421795305e-05, -1.539762722007257e-06, -2.7183496188880904e-05, -1.2055688752175245e-11, 2.8228288574231472e-12, 2.964477874805298e-07, -2.1912907783868447e-12, 1.6074483647326011e-12, -6.610388887608571e-12, 3.4280895335997824e-10, 2.9799051813896524e-12, -7.035070528926406e-08, -2.4234530796918548e-08],
          [-0.00010221565397160038, -7.742640935283432e-09, -3.0354906091701704e-05, 9.739419485802194e-05, -1.190707795209917e-06, -1.0304437246518885e-07, 4.353127150296024e-09, -1.3276281993492547e-07, 3.988189600636986e-05, -8.150155013887365e-12, -1.9750368670358e-09, -1.1889515148330972e-12, 4.7764041132376486e-08, 2.905935589867245e-10, -1.6648833484197064e-11],
          [-9.228751419459404e-07, -0.00014840594516932518, 2.5128253616573195e-07, -1.3670552304007914e-10, -4.538689222764517e-12, -5.485816636882054e-06, 0.00011682397376805046, -2.5701522481270345e-12, -2.215342873295145e-06, 3.4094506967494786e-10, 1.0394837154350577e-10, 4.345246650895473e-07, 1.887899961674199e-12, 4.776919881440458e-07, 1.3789605987433172e-11],
          [0.6266741646586745, 3.860957959806687e-05, 9.819467781001953e-08, 2.3078267636288548e-08, 1.2780191593129367e-12, 2.471954376257169e-07, 0.43145102832199356, -1.5700046764451984e-06, 5.845365223470966e-09, -3.3374830457459633e-06, 0.4128354500468862, 2.0057304204408674e-05, 0.49183744956940845, -3.657170572618146e-05, -3.6756809513630837e-05],
          [-2.289830815775529e-06, -1.4738263518136007e-09, 6.965249647292432e-10, -9.236270474915623e-05, -8.135217450786753e-08, 1.941679637099994e-05, 1.6662783906795533e-11, -3.130124097700009e-08, -2.8658112576173977e-11, -1.025665215304588e-05, 7.602694492180653e-12, 5.174886777949412e-09, -1.7392385393637377e-11, -3.840694629619743e-10, -3.209367660880491e-12],
          [0.2256721686365761, 4.765777230294505e-13, -3.0640629805485066e-11, 1.0878033164230405e-08, 1.3101037500473472e-09, 6.357126122979941e-07, 0.5953659639683181, 4.132975088864674e-09, 1.9088833191875634e-06, 1.1496131989070108e-10, 0.3527997603529593, -1.3423731781604385e-05, 0.42999944081119507, -6.478879198474432e-06, 3.4118898306398146e-11],
          [-4.5854e-319, -1.3067533047259314e-12, -6.439795320949403e-14, 4.8537619758315565e-12, -5.542921944706619e-07, -2.8096651563183465e-12, -8.711285963946765e-11, -9.690650077458515e-06, -6.775224281807151e-07, -5.080138396624645e-11, 2.1267735876022366e-15, -2.479741669757831e-10, 7.442009411905197e-05, -4.3790239628485455e-10, 1.131183328989794e-07],
          [0.32243282093581355, -2.733000187470354e-09, -3.1499727987227335e-13, 3.0699583704965536e-10, 1.0447454528380159e-11, -3.62106877155528e-10, 0.05782157880427845, 1.1292497550459537e-09, -1.8501241651593705e-09, -2.5395705629481058e-05, 0.5459627894557274, -3.346508714494409e-13, 0.3073940258847899, -2.259237106820026e-08, -1.6914320275333777e-13],
          [-5.2812846983096695e-14, 6.886732347991598e-10, 1.2973864024991011e-09, -1.8408026149880196e-06, 2.3527285819030633e-10, 1.2787954638271647e-11, -2.851152234318612e-05, 2.2546110649525564e-08, -5.497607010352206e-11, -1.0996484270205273e-09, 9.152286157037278e-07, -7.387983044465296e-07, -4.853714073081218e-06, 1.785668191540986e-12, 9.336832870126427e-06],
          [0.6209830128795859, -5.202751120947457e-10, 9.1037e-320, 7.221566752177132e-11, -1.1642092377543696e-06, 3.9511329919383546e-11, 0.6618422272012688, -2.09963e-319, -1.9271750849285468e-08, -2.8400053835787824e-07, 0.15067371676012278, 3.466235732575666e-07, 0.6875856209633735, -2.2158726719277624e-09, -2.5092036939750457e-13],
          [-2.4492e-319, 8.524372488600719e-11, -6.375877694212046e-10, 3.7102200497737554e-10, 0.00019296956474263618, 7.883369041505762e-10, 1.0958628559293894e-10, -8.340583458688015e-10, 1.4677520922769842e-10, 7.429095743987933e-08, -2.316220945594781e-07, 4.580437669745296e-11, 4.163077951116039e-08, -5.551925858270926e-12, -1.1713285627421931e-05],
          [0.5375379236171498, 4.245819727124353e-15, -7.415547829315005e-12, -1.0739978630036557e-12, 1.5315056466971583e-09, 2.0376180386603087e-12, 0.658141687612814, 2.8313748321364743e-12, -1.739633021079799e-10, -1.1664e-319, 0.2560784772484905, 3.5948743020625274e-09, 0.6289096400839561, -1.623133879083581e-07, -6.514981701556654e-07],
          [-0.5196632073530173, 4.3293335852730224e-11, 1.1055481323356526e-05, -1.0122073991605086e-09, -6.13995377488866e-08, -5.579513061180384e-08, -0.5941569876511833, 4.16315e-319, -1.4086846563049687e-07, -2.969438429959865e-07, -0.45451910966431774, 3.288842328708093e-06, -0.5413226872945534, -1.0101363580237522e-10, 2.4820551410200252e-09]
        ],
        [
          [5.417941234407025e-12, -2.0747167943735525e-09, 0.39395567841548595, 0.3597590529391037, -2.4699823702032414e-08, 0.6703188957453858, 0.4073323401155976, -3.150272920598085e-07, -8.000682027043702e-12, 0.6556312360695336, 0.29725422467047424, 0.12446621313156031, -5.9550829454054066e-08, -2.499413895101049e-07, 0.4995038322777968],
          [1.3006322388903957e-06, 2.645418164347362e-10, 1.005461786610677e-12, -0.00010408408287549748, 9.290949798077402e-07, 1.8167024661114866e-09, 7.69037754125734e-06, -4.809173250966283e-12, -9.856081714199202e-14, 3.4289931462976125e-08, 1.679197037073122e-05, 7.070459465043942e-10, -7.884337320496177e-10, -1.3936407335868978e-11, -7.663324909897648e-12],
          [-1.2975200002886787e-08, -7.501261431873886e-09, 0.00014791414256436574, 1.1047936897542809e-10, -0.00014972697935701067, 5.118903473640882e-10, -3.8976208930220746e-10, 4.261978709090335e-10, -1.2646754894439878e-08, 1.0717587033582091e-11, -3.675915171766242e-11, 4.703144654178719e-12, 1.1399e-319, 6.875860413071954e-05, 9.630006679951441e-10],
          [1.2647634100123378e-10, 4.885974880166025e-13, -4.8227028760409576e-09, -6.164463924898119e-11, -2.8616108310974327e-09, 1.6109646565408379e-09, -1.1715495128718454e-08, -7.964657576596241e-13, 2.425181119773866e-11, -1.0094174262777584e-05, -1.0554414128559115e-05, -3.614251065486898e-11, 1.1419413066330923e-12, -2.2115081772203524e-10, 9.496860285267872e-08],
          [8.137110702834101e-13, -1.7012185807982431e-12, -2.918987391436296e-11, -3.1661153431313713e-13, -1.8871095529696697e-07, -3.336429236181531e-11, -2.9677280496416393e-06, 9.089356479777078e-08, -1.6394935554916868e-05, 8.052132666623269e-13, -2.2010720821465373e-07, -1.1983331519393004e-06, 3.493993937086591e-09, 7.483810781871698e-05, 9.020584368300064e-08],
          [-9.84313941225424e-13, 5.320156090668778e-07, 3.698078270004072e-13, 6.898825620772834e-12, 8.76623008891634e-14, 1.200660603008098e-10, 4.892828454167475e-08, -7.986139391500312e-11, -3.4749842438033843e-10, 1.1644354944307032e-05, -4.287494238121528e-08, 1.1413401210232316e-10, -3.2232413939113924e-12, -2.20527478568571e-13, 6.612878219044278e-08],
          [-1.2860962322589586e-11, 0.00012532452082945948, 0.4348333224639754, 0.7071917621350513, -5.843473738452435e-13, 0.6942120166395495, 0.29555392480247156, 1.8946584568358566e-09, 3.8168570952203845e-09, 0.7189039290043826, 0.18744258053622037, 0.41394091327695604, -6.478292553715241e-12, 4.687525224324842e-12, 0.1510454044542946],
          [-3.0038524103021534e-14, 3.243417426395246e-11, 2.824159292411655e-09, -4.75014064039427e-11, -5.47261714739981e-14, -1.720727950903159e-09, -1.269129026655279e-12, 1.8063761073453125e-12, -1.4498770971453287e-06, 1.7071129516918056e-09, 2.3286796443347105e-09, -3.10407e-319, 8.873099792026328e-10, -0.00020672731513258537, -1.3772662316645416e-13],
          [-3.217976279458466e-07, 5.010748989544622e-10, 1.5901758604058022e-06, -6.304897261505216e-12, -2.5922742084662895e-07, -8.181460184055011e-11, -1.0946708557240562e-06, 2.3921415335766828e-08, 8.9857835459014e-05, 6.502758915785039e-09, -7.837981758158738e-10, 2.6503866107144045e-10, 2.069527050588612e-09, -8.567576481303506e-07, -1.4624418609624288e-12],
          [-2.345054461484481e-07, 1.8461775539524838e-12, 7.729231655285163e-13, 7.318129493007062e-10, 6.8127745427146395e-09, 3.5769046676485393e-06, -1.328542502527943e-06, -6.570939859189926e-11, -2.9534605096921176e-10, 2.6289768114311625e-10, -3.8542799759926685e-09, -1.5765034758881636e-10, 1.2867459218423305e-05, -1.783835569689919e-10, 6.938218824804275e-06],
          [-6.337164563805193e-13, -5.730129456901967e-10, 0.6430243758399948, 0.4357344433424137, 2.728265964878496e-09, 0.34976752968173225, 0.060583393156526666, -3.597873617786688e-11, 2.0295024960513556e-05, 0.4149400701803328, 0.22209369436630302, 0.41269402254253956, -2.2294e-319, 2.512838875717698e-12, 0.26356074351934766],
          [-6.3641320081062426e-12, 1.5853288221619447e-07, -5.079382212309508e-07, -5.278190468309177e-10, -4.795935302335782e-13, 2.111816070821261e-12, 2.0726293034444835e-06, -0.0001014143152632307, 2.393369342120044e-12, -1.641743953952796e-05, -4.717185358442685e-06, -2.471860411162264e-07, 2.700754727146092e-07, -8.583073559146835e-10, 1.4268039999636706e-10],
          [2.94424e-319, 6.181192541355022e-07, 0.5539584063262135, 0.5009289349480732, -1.042064938923733e-12, 0.5279642683625579, 0.13164072385582887, 7.00217412745708e-09, -5.499577253679522e-09, 0.71573632002837, 0.2694984035691293, 0.45246592044508344, 2.9002539298633326e-13, 7.294448906720738e-07, 0.2373331311596362],
          [-5.945205642906662e-12, 2.6429060928258655e-05, 2.5771311880695456e-07, 2.1984038747389473e-13, -2.814457480119244e-09, 5.751188842327638e-10, -1.4672436435914192e-09, -5.442878653857817e-12, -3.918160119687105e-08, 1.0003148750573825e-06, -3.424985922789e-13, 8.158276035561817e-14, -1.5132772936724119e-12, 6.652225471907647e-08, 1.1796182064160373e-12],
          [-6.05052438107145e-07, 4.709901709239133e-10, 2.364881890918268e-12, 1.1801609389053005e-14, -3.171058360079912e-12, -2.4996846490480403e-12, 1.657478227949001e-11, -2.7112e-319, 3.1854754061094555e-05, 5.993823461687486e-08, 6.076310647381484e-08, -1.0323148013033359e-08, -5.820569099950534e-09, 3.298894416058698e-07, 3.4148424335167853e-09]
        ],
        [
          [-1.8763e-319, -7.842124895341367e-06, 1.4414702300593057e-12, 9.26510143307832e-08, -1.5138027679069654e-07, 1.00618411520406e-07, -5.31513578826091e-07, -3.8471212998927773e-11, -9.609615850493164e-10, 1.4045567155807988e-11, 6.539742252226274e-06, -7.66537401793461e-12, -7.317066653616348e-05, -3.337074412554118e-12, 3.076532971540493e-07],
          [-9.393953303652536e-09, -1.8715366484710187e-13, -2.537813638173656e-10, 1.9360636300670673e-11, 4.091882749629702e-10, 1.1692709356427304e-13, -1.4154509240688333e-09, 4.3476237738095916e-07, -7.037746820414717e-11, -6.224617067174871e-07, 1.882607937843203e-09, -2.736790117607925e-07, -4.100129202478527e-08, 1.4312218786679282e-06, 1.6351499527744656e-09],
          [0.6577942327069372, -3.693327649327971e-06, 0.5645418417859583, -4.525869882943173e-10, 0.38386972784187606, 3.320880155200088e-07, -3.6362039075430616e-12, 9.192063262429969e-09, 0.18396734894797268, 0.5763024046931292, 0.22497696734867306, 2.4639952286941574e-11, 2.3231851194623245e-08, 4.97611301717164e-05, -2.3017981376508136e-08],
          [0.5626865532804416, -2.789687921763534e-07, 0.4728705538213511, -4.416453398685936e-07, 0.7076637366204738, 5.457811524497156e-13, 2.159808713266431e-05, 4.782765216505546e-11, 0.11008398840248032, 0.32990482155737194, 0.2025393728529374, -1.6662754110682348e-07, 3.84977324482439e-12, 1.8356705162724523e-05, -8.340631541511847e-13],
          [6.72548077873013e-08, 6.578321121704133e-09, 3.2152979774636778e-12, 4.763472083869883e-06, -6.539536758839532e-08, -1.3612860036408979e-06, 7.987320202682357e-05, 2.347083227158895e-06, -4.792877520789404e-05, -1.534984307466201e-09, -2.2458956689665464e-09, 2.3594537673957612e-07, 3.977212053126896e-13, 2.165307993123544e-12, -9.21044561075492e-12],
          [0.5931196497122809, -2.719710751563112e-13, 0.14336074832394413, -1.1724548372927432e-10, 0.746971377038761, 1.1584549396925059e-09, -7.2583e-320, 5.774362262085048e-12, 0.305854303026275, 0.2748014651015131, 0.4891844571046988, 0.00012384168156274577, -1.2281476222171241e-12, -4.973110658820554e-07, -3.940751627118511e-07],
          [0.13386580571544596, 6.679374773000266e-09, 0.1562227949770105, -4.8039e-319, 0.27671311301188467, -2.2817250786014838e-05, -1.694012267672013e-08, 2.140316961181439e-05, 0.22207215749907563, 0.34663182070665555, 0.1878745722263704, 1.3785138699325077e-07, 1.0832990081135745e-05, -1.7781942886372087e-09, 5.7261276676345395e-11],
          [-5.058353888052108e-07, 1.7113660675339324e-12, -1.0345496521528323e-12, 4.799780421293742e-12, 4.261972906672376e-09, -6.9329093936539065e-12, -4.051755210750498e-11, -1.1763822860634724e-09, -7.077100935887671e-09, -1.1413895875426956e-05, -1.1763201312955632e-06, 9.608040738384408e-11, 4.806390442107885e-07, 1.3236245415341827e-08, 6.039473168149899e-06],
          [-6.147799013525939e-10, 3.2964340188715544e-12, -1.014973652141887e-12, -1.29446145717245e-12, 9.08592103317075e-09, -3.4908841321007633e-11, 1.7386560642409845e-08, 4.101745438502595e-09, 6.437196946082882e-11, 1.254864147282602e-06, 8.930390284733364e-06, -6.808709442799886e-08, -2.1367749200608556e-08, -9.599950846060459e-12, 2.022241294508633e-10],
          [0.2703386703465694, 9.19479000267952e-07, 0.3774160286104312, -2.6799405094056873e-05, 0.7088202503083039, -1.4837715707063566e-10, -1.4928269058740865e-10, -4.325743291095116e-11, 0.6164010379485118, 0.3061963726743967, 0.6630956149913076, 4.634651400213809e-08, 2.53627622820178e-12, 9.135638763956023e-12, 2.1662409068576915e-11],
          [0.18011360016916855, -2.1594467850009682e-07, 0.2567853684954827, -1.4268194934429854e-06, 0.1552296452672334, 1.7232733753052176e-12, 1.9463306476806474e-05, 2.1974998117757013e-09, 0.15326337685553793, 0.4002948535458045, 0.11447898648681445, 6.503882785087864e-06, 2.5291706930739533e-06, -1.1215351981328645e-12, 3.2364340681463156e-12],
          [0.5798070393482729, 3.0115e-319, 0.4358711593868312, 7.2405799701421284e-12, 0.31326927083942246, -5.829696755289332e-11, -2.98090481207495e-08, 0.0001325217445380534, 0.183984424273232, 0.5079312525287704, 0.30409818651092957, -1.2243167012419843e-08, 7.544417335872629e-10, 9.997013215621854e-12, 6.316573823951176e-12],
          [2.322482698664159e-09, -1.150238427302507e-12, -3.697187440527797e-12, 1.0339707083216923e-08, 3.8276683728422566e-07, 3.171762324825083e-08, 9.117853763745198e-11, 3.528366398587025e-10, 3.5248e-319, 8.722587187698397e-10, 4.509397204162239e-09, -3.0807332718108664e-12, 5.3891901469717244e-11, -2.42604241527933e-11, 5.9404955154050045e-08],
          [-5.228227174375337e-13, -1.7545100637415948e-06, -5.8972748575442956e-05, 7.147212652231755e-13, -0.00020667657566924799, -1.857993042216659e-11, 1.1459129593350642e-06, 1.4667664594251675e-08, -3.4099653070159687e-07, 2.3618166756528043e-05, -3.4046797397713926e-11, -5.964934936425277e-13, 7.626292748350564e-05, 1.9441826787441693e-11, -1.22624090589431e-07],
          [0.2738253173837886, 1.221932423612836e-10, 0.22390428074722432, -8.07090315990505e-13, 0.3087137410983892, -8.407595077900809e-13, -4.222159006600329e-10, 9.048337618721565e-14, 0.26916181531302047, 0.3598748980578225, 0.14394428561433525, -8.324926279017212e-07, -2.6559061089736546e-08, -8.629712516497285e-09, -7.353214252926247e-12]
        ],
        [
          [0.7285422960544983],
          [1.5092161755947452e-07],
          [0.617644086080527],
          [4.13996302830119e-05],
          [0.8089813462832917],
          [-2.7145e-319],
          [-3.3636e-319],
          [1.245603464648021e-12],
          [0.5294273386610986],
          [0.7364268788593126],
          [0.5515022499990565],
          [-3.370395331084352e-07],
          [2.503852992521809e-13],
          [2.8454385136684055e-11],
          [-3.262638320387738e-13]
        ]
      ],
      "split_point": 8.0
    },
    "nn_main": {
      "intercepts": [
        [1.614994339927112, -0.13890837621363894, -0.09435971437398809, 1.9309059297454583, 1.1421950538220669, -0.03991078899310756, -0.07315436177162651, 0.041042544771396336, 0.9567171230855904, 0.049350337237892714, 1.45969796129348, -0.03193732134204723, 0.028569532026648897, -0.24324418839804224, 0.1726951975803942],
        [0.3824187948187732, -0.03144074594562123, 1.651901019468778, 0.4053480199094227, 0.3570104943663051, 1.0021314783934543, -0.3684178008318162, 1.0506619750326787, 0.9238135649864418, 0.5609409685494446, 1.0245557745492349, 0.2982158176369696, 0.9817582413876098, 1.1700912520426983, 0.6806046858627868],
        [-0.02947545900347634, 1.095855676095151, 0.48341628456938307, 0.43855575697749166, 0.7892900754921245, 1.0114608065626698, 1.0608912957149264, -0.06841513435168879, -0.027001125276066684, 0.8851627635379848, 0.7061367764831467, 0.4877124386829692, 0.6903316749420999, -0.29995398724188527, 0.5171415492867797],
        [-0.027448457741682707, 0.38707664591134194, 0.39020367498096153, -0.0377747781075485, 0.6835417564667317, -0.20297388393138652, -0.06610058359776055, -0.11379211375498796, 0.6456591527648577, 0.7286595940797536, -0.12761495910190834, -0.340232076980418, 1.0406462408456454, 0.7581781056890334, -0.3233768524090812],
        [-0.10019225689409876, 0.37762573175701575, -0.5940307090617598, -0.06064675938650438, -0.0827113807457572, -0.0923827455254083, 0.8455625893545021, 1.1083330737563277, -0.0848974780556593, -0.2577749598863581, 0.7537176064816707, -0.07473710665260258, -0.07629166135638868, -0.31506497964673147, 0.9611185785749798],
        [1.2488920900024885]
      ],
      "coefs": [
        [
          [0.0015593947086106113, -0.002947771309704825, -0.004398682337734171, 0.0015301050492463907, 0.0016336388844852047, 5.387373386552928e-05, -0.002890067238946794, 0.0004381618308241835, 0.0009400744963093059, -0.004524855835461662, 0.0015811589187339772, 0.0020318985709636157, -0.009595387546140099, 0.008176034600249125, -0.0017906548293761685],
          [-0.000945205058542137, 0.006730932218329771, 0.0021802986267570185, -0.0009367232641734479, -0.0010178551604848902, -0.0025232805868808097, -0.006238463905600183, -0.00670479593890863, 0.000299362470237902, 0.0020644223738862815, -0.0009566719547894676, -0.003511910979433327, -0.00015917722139246316, 0.005429090925705898, 0.005466336329612836],
          [-0.015082145279084781, 0.0062195898967194714, 0.005261951959691839, -0.020384156222811364, 0.0033627570805404468, -0.00837878284780186, 0.0034478161438635767, -0.00857454548355038, -0.012206127325649558, -0.009959190156699181, 0.051391336263968995, -0.009958854482973878, 0.00573439076923607, -0.006690880685608793, 0.0055528379240093835],
          [0.0006256032574384138, -0.0025036321030587794, -0.001469502037123714, 0.006499410322951811, -0.0027345758260430525, 0.00211069017051737, 0.0019124841240778327, -0.0003319629796407615, -0.00010780335390117106, -0.0007025098454492738, -0.008763820928578317, -0.0017791027157127738, -0.0009343252088614471, 0.003507553719283568, -0.00035531896454345024],
          [-0.00463862946051844, -0.0003975260083832317, -0.0018400174489395364, 0.001358161775360229, 0.002838961430211147, -0.0004966441942232903, -0.0038191361093097447, -0.0009664202259989091, 0.00035963063869655723, 0.0019707188048771747, 0.0014634760478149584, -0.0020131566702022412, -0.0006051681325893434, 0.0006619483560614485, -0.005593828701287922],
          [-0.08016194717639379, -0.0031831816825121755, -0.00633302281830068, 0.02337641818002902, -0.0016461229536520836, 0.10425836598713106, 0.0010126838550119806, 0.004963685615654989, -0.03190481692919785, -0.09273672356443664, 0.0585746293523243, -0.004011498576179925, 0.0033198130719852893, -0.007717484322908835, 0.03401030324824132],
          [0.05352036858078968, -0.0051981288491841, -0.000636086532007425, -0.07610001066579837, 0.013800960261236892, 0.10714499899925974, -0.0013572478885072754, 0.0023337058690079374, -0.023161396907240218, -0.09665293492844523, 0.048148460960033446, -0.0029389307482093393, 0.0056279600304016825, -0.008955750136450008, 0.030653425601229394],
          [0.05543831503908219, -0.02848923788513188, 0.00327048917654364, -0.06555318541766843, -0.10095345470490222, 0.08549319465258788, -0.0036946773013930216, 0.0037909527322956636, 0.02490628561361318, 0.12309331358934052, 0.06143162026908963, 0.0037180525225273234, 0.012180576368408455, 0.024081735426587505, 0.047649056116925104],
          [-0.09513454943863922, 0.004618047156365333, 0.0025554660783959587, -0.07957893494259045, 0.14244246048623901, 0.07228378263690527, -0.012494562175117388, -0.0062932226764928325, 0.07099521293061947, 0.06888226193688661, 0.12320242638093962, 0.0017658549741863456, -0.00012974334063026603, 0.016901101354456986, -0.012808200355013257],
          [-0.0031685660085950303, -0.002899231888224681, 0.0010683346574174742, -0.0024639259561070816, 0.0008139810786044789, 0.015076999469464484, 0.003687389159733703, -0.0017327543118356048, 0.0072296550201721346, 0.016861092846722204, 0.003780683220360223, -0.0022632549694374974, 0.0012726461510208077, 0.001484379916119692, 0.0035959796047470415],
          [0.02130360408617742, 0.0010194987449658468, -0.0042610983686932075, -0.005187633616033338, -0.003034242314673892, 0.015425345619993132, 6.253047995818546e-05, -0.0002717391559817296, -0.00014207273251264774, -0.016945737435393324, -0.0132228718871595, -0.0017512370965061383, 0.00022344772275182846, -0.0012263350104805165, 0.0006236014283373242],
          [0.010664512143041961, 0.003131887187056, -0.002690635216193677, -0.0018929355056787973, 0.01161519559241502, 0.005685005461349417, -0.009077646680126547, 0.09702526984284542, -0.003683367979870178, -0.0033517318076930827, -0.013479883994707256, -0.09945025786246871, -0.00021953964518239157, -0.008544551314524982, 0.0044141703107582995],
          [0.02966298717118994, -0.0018104537070978456, -0.005283450319118923, -0.022820339099676623, -0.0033868708905903325, 0.008502651213482235, -0.010116125162808898, 0.10036543270658602, -0.00037615720870874474, 8.61874106778553e-05, 0.0013410454937732746, -0.10132381836256825, -0.0003305584664823886, -0.006816786326550204, 0.005280295098131914],
          [0.021104838562932823, -0.04002991212705372, -0.0001849894383404742, 0.019530804770390583, -0.02771685710592532, 0.002262040842357841, -0.0025538396046665725, 0.0970801636973174, 0.000634806901226168, 0.005422420557092408, -0.04920947787231508, 0.10547425682580187, 0.020844501155222094, 0.040970968600086505, 0.04058583145641903],
          [0.0893822050238265, 0.005888981779449485, 0.0027997246814288916, -0.0983469732063516, 0.17706966632019122, 0.005377120411282439, -0.006379266695384226, 0.06942639623531659, 0.033185804868194294, -0.007872208256312983, -0.04836277853356241, 0.0660240137574224, 9.310996535127357e-05, 0.030888547778959746, -0.009515983169294721],
          [-0.031631337729904056, 0.00014935416995866892, -0.002629322150925387, 0.02705641650630614, 0.004948245128618001, 1.3669905437721497e-05, -0.0005907702608898214, 0.017591953842684905, 0.0033010427595782047, -0.003261589723936138, -0.007790105945811648, 0.014682985280616848, 0.00530295071537809, 0.0041690390521993345, 0.0035526598446889253],
          [-0.005168439373450252, -0.004121306610000311, 0.0021484664886302924, -0.012185486735384119, 0.0001996129278932393, 0.0003954353906426962, -0.0009463689710123929, 0.017578002217684605, 0.002622318506954116, -0.0021962456468820383, 0.021715884042572443, -0.013212088376537378, 0.0022713446959122014, -0.0016390574870667246, 0.0025836481530133164],
          [0.009184158102736846, 0.14282418734087557, 0.005169913625530543, 0.013012243564854652, 0.0060787993168163554, -0.012329732845942375, 0.0016184128242270003, -0.00017926395227655403, -0.028580516173870134, 0.012286013407236493, -0.013804383729039128, 0.00217708302200942, -0.0660041471805832, -0.12973547821543283, 0.010648869252358948],
          [-0.0898897794772255, 0.012786701691614655, -0.002777839067552541, 0.028233308596909448, -0.011932251568081772, 0.022296525186211728, 0.05518655748360818, 0.03248859516392116, -0.01133974354196503, -0.022779801239453265, 0.05527473252971699, -0.04087383572439336, -0.0018018840584239433, 0.06752975992940068, 0.012830351669426707],
          [-0.004516599881267912, 0.05943345315818773, -0.0018269599458108183, 0.0079797847946227, 0.004962104302212869, 0.0006516869977800158, -0.002764868721281954, 1.5228358366630862e-05, -0.004988263127541572, 0.002402511562835062, -0.003035548483693844, -0.0031534185048560314, 0.06820234349798973, -0.013117248763089031, 0.000573219198552156],
          [-0.04792001282353594, -0.015071709679325508, -0.0037302951579967713, 0.0888939241960713, -0.009211979149485707, 0.007808091471971899, 0.035262730893653706, 0.007006779482994989, -0.0317423859968367, -0.0009930847341645382, -0.0648300629943433, 0.0010085725382308621, 0.0720085704065384, -0.053354934688494005, 0.009656875487675007],
          [0.015097890074466687, 0.0007883016424742408, 0.001898243111508546, -0.01371795873546499, 0.004638384187303613, -0.000704363626929478, -0.0009570203364286587, -0.0009308836277087419, -0.0014890784177797197, -0.0005153915950358039, 0.002327722501363371, 0.0003650547149677565, 0.0013810767295235715, 0.001650027379427975, -0.00023191706077981892],
          [0.013592219183516248, -0.014290469285474254, -0.006404367156201332, 0.02083312874422152, 0.007804941219097378, 0.004873436337409027, 0.038601148380861726, 0.009500609533806666, -0.1859945744687281, 0.002704244227757119, -0.0008066718262856967, -0.013619199818330364, 0.0013681480120461998, 0.004216810300870162, -0.17426543307431408],
          [0.06684466185844073, -0.007630118705162316, -0.03100802245172634, 0.0014278427478865443, 0.06527467910244535, 0.042648119605588335, -0.10954913332273941, 0.019818179286794677, -0.10547332094900352, -0.032272156982697434, -0.07067373663675905, -0.020459454917462983, -0.002525447703507696, -0.0017017737228335946, -0.01018933231174431],
          [-0.00841918023746808, 0.0006857687773698094, 0.09565717400161207, 0.006906012535026137, 0.008691661235889618, -0.00278402887293536, -0.006415907377646963, -0.0016512539200636428, 0.028527657760799827, 5.788692170275876e-05, -0.010162225993739796, 0.0037301519109756197, 0.0027747852014685676, -0.0017759264318552089, 0.039109570762223544],
          [0.028763267239136036, -0.0030837288681407355, 0.07477285311127137, -0.013934994543815539, 0.018533462813908264, 0.006478860341644856, -0.04941730914159292, 0.003590646628191211, 0.15808526828321778, -0.011148851526464365, -0.05583539230750538, -0.006061118925514782, -0.0015419170665755626, 0.004304015056047269, -0.06291429171427156],
          [-0.0025268653105912785, -0.002935164030163153, -0.00423097186736506, -0.010010937849740414, 0.008017825597429095, -0.0009177332687825651, -0.0028202383277130673, -0.002002013424598834, -3.7187478605390205e-06, -0.0014442284416404955, 0.013540239029257231, 0.0017082836950522583, -0.0010039622148089865, -0.0015497113117410302, 0.0004332766303477225],
          [-0.02752518351360378, 0.0005196768135667881, 0.00023122017778335637, -0.053350328523422606, 0.016454851194333316, 2.226890923476312e-06, -0.0005734367104718932, -0.0025431897213528862, 0.005625700819659802, -0.0010234061101768463, 0.09340403560093742, 0.0006601379698579889, 0.003493312244237553, -0.002059858009314751, 0.003852837732659144],
          [0.09079560548283727, 0.0015531507003548578, 0.0016311926571293178, 0.010983530125030448, -0.004790022774013258, 0.0023545538441759623, 0.002095117655540218, -0.00021919844831134674, -0.006417229666265523, -0.0006670149774739762, -0.10640212814311364, 0.0005886080948012095, -0.0005773063944186653, -0.003312625216892694, 0.002069144533573895]
        ],
        [
          [-0.005864952062303708, -6.039492538213518e-11, 0.932285798230254, 0.0032151639213722815, -0.009009377032963662, 0.1042079785476014, -4.421053506425677e-06, 0.14219192276153092, 0.27790214994078954, 0.01264167644985076, 0.16405158707140172, 0.20592188065627054, 0.14626684637450207, 0.16796730684760994, 0.363223257992275],
          [-0.002365835847980504, 6.157424056808897e-11, -0.05763424971321302, -0.0610850751805749, -0.0021024040694417167, -0.009394797468429387, -2.7936465608760116e-05, -0.010656602998081658, -0.01331702588493161, -0.0037158621303180527, -0.014178427236456785, -0.009355336394871233, -0.011247301922431967, -0.011742689552942248, -0.016508309378687292],
          [-0.0019141035449770974, 8.816018792239353e-13, -0.023733970771387777, -0.08761841963331345, -0.001807273581756156, -0.003927355038212918, 1.1041694807933718e-07, -0.004306488809740284, -0.005149458107236608, -0.0023529303561203954, -0.005440810620513948, -0.003905187439873977, -0.004492581725017166, -0.004641636780517721, -0.006237327037353475],
          [0.002695321923307195, -4.1819205583728164e-08, 1.2359004986450342, 0.007854938066861387, -0.004851710295849029, 0.18912700818350933, -3.6877e-319, 0.2223950246794755, 0.2520137190867895, 0.025800616753193856, 0.34016582234098924, 0.2596488035295614, 0.21121067774829502, 0.20016081999419885, 0.45150748448522376],
          [-0.014702864893357643, 5.0119390691180953e-11, 0.36927569834832413, 0.01038308192955058, -0.01836140748232417, 0.02615914454200228, 5.9988646515855345e-06, 0.010130078866453132, 0.1272098215844406, -0.008041162935914328, 0.18621312152870426, 0.10893109526708726, 0.1249116509559231, 0.08495963707711798, 0.21058766796902428],
          [0.0008159692231471721, 1.183326959271289e-09, 0.07966714341219824, -0.061842674986493235, 0.00041087684688525226, 0.011129071993102561, -3.8591326949158806e-08, 0.012926597050057165, 0.01669548099803173, 0.0028881756505874812, 0.01789249478867696, 0.011057222810136127, 0.013742540829068263, 0.014484529700866576, 0.021178488656372233],
          [-0.0022367209064462447, -3.696497412220558e-10, -0.057345849492547264, -0.013590866761122023, -0.0018287877832850648, -0.009508585558286405, 2.2711342220729878e-10, -0.0107501875948831, -0.013337391143185611, -0.0038397258439192114, -0.014176208794421547, -0.00941768255470834, -0.011306082643976163, -0.011825219018082294, -0.016435294358354984],
          [0.0008475431688142664, -4.241538072566422e-09, 0.07901035026889033, -0.03498418936789232, 0.0004396278233767792, 0.010980181029411494, 1.0808854563490761e-12, 0.012758623058748456, 0.016507122071092558, 0.002888745298823942, 0.01769398337990081, 0.01093338212506273, 0.013572360396515172, 0.014301842317313278, 0.02097166790299641],
          [-0.021117743828682426, 7.28840426573313e-13, 0.24144767062318692, -0.2717183617368455, -0.023906112588574637, 0.022982117260945293, 5.103271178377356e-11, -0.012012160290837261, 0.1253384208571911, -0.008734849196580283, 0.023345111485247108, 0.03937505732923966, 0.11345453181043633, -0.018593119976525643, 0.13577722828754898],
          [0.0003344053340587193, 5.386403179481633e-10, 0.07716957407452979, -0.07215073012971691, -8.517421753098141e-05, 0.010417170175559818, -4.801073640523521e-10, 0.01216976637783213, 0.015900096385991033, 0.0023937611913275028, 0.017069377371081492, 0.010427179811994706, 0.01298657945378583, 0.013693765351891965, 0.02034234457612395],
          [-0.012163842044674238, -8.342284809045217e-07, 0.9755957067794382, 0.009134382149791898, -0.014737962269613354, 0.06336482280263482, 6.40349947004222e-10, 0.15946301723004944, 0.13258260572508743, 0.0021279084337660578, 0.19551957464994163, 0.15717721279362867, 0.09059146985345372, 0.148457989074714, 0.18780781595541768],
          [0.0009346290807188738, -8.751842367514951e-13, 0.0791285762278628, -0.05231802194629424, 0.0005401649492651539, 0.010883724268027108, -1.336863252106748e-13, 0.012640821528401692, 0.016362738874011868, 0.002930834158788607, 0.017543691517610156, 0.010847846999777973, 0.013447585253672538, 0.014169085421074912, 0.020817252698394427],
          [-0.0016839862092156072, 2.56277476698585e-05, -0.04188633920712007, -0.019892552361000782, -0.001471322468319292, -0.006699181246187806, -8.771573331652688e-06, -0.007606175640086366, -0.009516198800908442, -0.0026719336611772835, -0.010138283154945013, -0.00664972959862794, -0.008023962026137584, -0.008390890830712813, -0.011816150962702703],
          [0.0010065996069316809, 3.43357165108007e-12, 0.07673949673263793, -0.0072365034469336524, 0.0006624604543836531, 0.010754864635700237, 3.07899842055615e-11, 0.012475200250860834, 0.016067976892924378, 0.0029088025553252435, 0.017218761551117567, 0.010654778412208335, 0.01324807698217368, 0.01396685812481914, 0.020349354157499486],
          [-0.0038885274468015377, 4.074136260782441e-12, -0.025137387116698738, -0.17601937718389468, -0.00369857875327022, -0.008294761778014489, 6.37410186408168e-14, -0.009005736130115629, -0.01042134163699289, -0.0047921028017007235, -0.010858777989144705, -0.008295904112429767, -0.009368464779170098, -0.009579570782523346, -0.011919575439805753]
        ],
        [
          [4.4359033211033436e-12, 0.011362654534574444, 0.015403307774697488, 0.0011443070536243194, 0.004176738685031356, 0.03205241359225788, 0.03172850972231505, -6.255124932606669e-13, 8.749929483929126e-09, 0.012578506059973198, 0.02293991310269313, 0.010331875736687595, 0.016084067302956397, 1.2684037167885013e-11, 0.019848712820856353],
          [5.928277928905618e-10, 5.544406236806885e-06, 1.6313316685633096e-10, -4.63940741519399e-07, -4.5689194239956384e-05, -1.3040892237035599e-12, 2.657064741063172e-07, -1.203710824233187e-12, 5.780132285877309e-08, 3.347607900165934e-07, -1.7200261539965235e-08, 8.578052213096886e-10, -6.178451876983143e-08, -9.810631498963565e-13, -1.230174729500898e-07],
          [-6.739820064588715e-13, 0.6664439895187922, 0.8599927106727681, 0.23994866977096393, 0.347976285070131, 1.1206981184229539, 0.8425848647394233, 4.580279574158715e-13, -1.9889551376237724e-07, 0.6536507700534498, 0.9859916398260833, 0.7395304266031341, 0.696064124132284, -1.7163996259196447e-10, 0.884048358089127],
          [-6.790841882262296e-06, 0.09673254631352217, 0.12107274210298927, 0.0344367092751224, 0.055458873236500277, 0.14837625013404368, 0.13922670967500617, 3.1025849081010886e-10, -9.048388410003809e-05, 0.1003139089413902, 0.1311336747022017, 0.09096041302502829, 0.10749377484385211, 1.384187112291716e-10, 0.11977535136661963],
          [1.2088976912847583e-12, 0.00911049715931902, 0.013610358355794747, 0.0003106776508665788, 0.0025778444337224266, 0.03067427714245645, 0.018083603397068028, 4.481929462817745e-13, 1.3851886387028153e-11, 0.010515116779193806, 0.018393945227398376, 0.0077946296270066375, 0.013595970538996834, 8.765e-320, 0.013735369028730371],
          [-7.758355748464808e-12, 0.07649821349155221, 0.09124353892797704, 0.02613584620804522, 0.05240031894406046, 0.19495878068320327, 0.11575791815810826, 1.3801193338617085e-08, -1.7859396119751248e-12, 0.11871405126130775, 0.1849226960466347, 0.0916723399956623, 0.11976175189731969, 2.3786281170141914e-06, 0.09924844183432507],
          [-1.210561240164409e-09, 7.755541193839452e-13, -4.3538500219752894e-09, 7.775578325249489e-12, -3.221318000924032e-09, -3.451046384498973e-10, 1.6089153917525702e-10, -2.7195996745415284e-09, 1.9501748987845217e-06, 4.876856337061118e-09, 3.824710216942148e-09, 2.3102263383751056e-11, 2.237746761524765e-10, 1.319702182606441e-07, 2.4784e-319],
          [7.659927972253682e-05, 0.1177938463515566, 0.16090126465484897, 0.030565987905183514, 0.06149397582709416, 0.17984448040941314, 0.20444298618704895, -4.787214797934213e-05, 1.9116913084474093e-08, 0.12416619375538644, 0.1444942062329022, 0.09445361696946766, 0.11886200621840613, -6.566053470584711e-08, 0.11378404768300739],
          [-0.00012577510707832972, 0.184938475170131, 0.14654009602604945, 0.037335826049229116, 0.06632630720316438, 0.25727028846537725, 0.1785521049342075, 1.5718727259191938e-06, 5.583103521393987e-11, 0.1461603760555575, 0.23369292711153844, 0.07902683199114895, 0.13003127796494454, -2.7960294796454338e-08, 0.24249703798572253],
          [-6.112416763893787e-09, 0.02621268936227587, 0.04260391778376871, 0.006249606768558385, 0.013521950739193739, 0.0530511811903695, 0.05717165615801332, -2.069818160065797e-10, -6.108661480126489e-13, 0.027395057597911263, 0.048524667479238656, 0.027692546169091465, 0.031245178422006935, 1.1735283809338476e-12, 0.04519266851270755],
          [7.836541101248819e-13, 0.1618723682215398, 0.18514638497040456, 0.04036170696707694, 0.06214307232274582, 0.20962114505384452, 0.2399779548174155, -2.970556848098141e-13, 2.6084688521135267e-10, 0.1471428296133707, 0.1574381485153571, 0.16774686645222245, 0.2322237585977251, -5.078321574934584e-07, 0.24891145950710386],
          [-1.3674168374370182e-07, 0.06779400978581249, 0.16022014584800837, 0.015708009778267074, 0.035515044467127076, 0.22707151321222244, 0.1510160724689938, 4.8024926100066995e-06, 9.711907589662424e-12, 0.09448507395541765, 0.10263425719814, 0.1050854746498949, 0.0651511085644009, -9.705999850222892e-13, 0.10155610416566119],
          [-2.0848267949466883e-10, 0.13957065866926405, 0.124433155604308, 0.03147047048458688, 0.0735588063814798, 0.1630252186928265, 0.21727947999021488, 1.0177040114271754e-09, -2.9362949959147216e-09, 0.06712696816215968, 0.15374595143219144, 0.13293092626696193, 0.16332395797710828, -8.26241510308258e-07, 0.17703239275819235],
          [3.5417287111494656e-13, 0.10798577956218829, 0.1981929110959951, 0.034986886165233336, 0.05903936575444134, 0.2339176779065932, 0.1945578231942378, -2.159934357846399e-07, 6.056425950689252e-09, 0.1480900480692211, 0.17177719340545458, 0.088241845280258, 0.15992490673295381, 5.410596902190505e-10, 0.09357902353700429],
          [-2.900683589668092e-13, 0.1526349742722913, 0.35351460801038126, 0.047738263322907246, 0.06825817289088265, 0.24769877277074262, 0.2678493417307181, 7.155846585051678e-13, 4.817860323389687e-10, 0.2573474913075375, 0.1900427726925554, 0.1555987239156152, 0.22215754488459882, -1.567505271495876e-10, 0.19949088604328122]
        ],
        [
          [-3.711935435036408e-11, -2.4329804466567257e-06, -2.516101789747394e-07, 3.894733358710247e-09, 2.0832252256684104e-11, -2.673917340250735e-06, 2.188226876340392e-12, 1.3023306552669363e-09, 1.4505588187952576e-08, 2.9647200105138036e-09, -4.052353638198096e-05, 4.3909e-319, 1.1235334956534359e-10, 5.98782879101963e-09, -1.3993075869442578e-05],
          [-1.0385128799936356e-09, 0.4062710156917428, 0.24040309444734187, 1.243372272892563e-12, 0.2194149864153582, 3.7762010654115347e-06, -3.699745290040449e-09, 7.303449167459635e-10, 0.22582996498913657, 0.303066219492434, -4.5316526302415335e-09, -5.8874419840380485e-05, 0.2021596963858556, 0.18116542823438822, 3.380729442558124e-12],
          [1.4312784293491488e-11, 0.358358230404151, 0.21402095922109557, 2.9571882558626693e-12, 0.1358900284791153, 4.052426018778082e-11, 2.1364250564128427e-10, -1.882960617769046e-06, 0.39333496885526303, 0.5325113051194558, 3.6803462984773483e-09, -1.1441838795695813e-12, 0.1404889304325812, 0.3938999881262735, -2.7928121895591253e-13],
          [1.218049333855584e-07, 0.14391982891049285, 0.06542885027521579, -2.6111786273347915e-08, 0.07577752196368116, -1.4461286309013907e-11, 2.29602564984731e-13, 1.71194e-319, 0.058773961063134275, 0.11418905575788132, 6.752224716097247e-12, 2.083655957330475e-08, 0.05000080884607289, 0.1093900882105806, -2.031324959267847e-06],
          [-0.00011432022300801147, 0.22127678176886023, 0.06625122921470258, -1.2055244960100954e-06, 0.08840786941376046, 1.3347122604697059e-08, 1.169121520058954e-05, 1.91456364787864e-08, 0.17843563522699724, 0.23955948874660057, -5.5985144103301855e-06, -5.6618373545484825e-09, 0.10386192114269213, 0.09132282561137446, -1.7388353605422094e-05],
          [-1.9606003698741736e-11, 0.5402038413895311, 0.43467183912368373, -1.6089393672602092e-10, 0.27984100715425675, 2.5892876168867796e-10, 1.86253898091409e-11, -4.9968368362302534e-11, 0.2120348114731118, 0.44270846371895045, 2.065420677789523e-11, -0.00021134652048209222, 0.38589813399636097, 0.47980918221787533, -3.1260892888663043e-06],
          [3.067836329709422e-10, 0.5176382823717793, 0.24654712756607186, -1.0575947466292768e-07, 0.35016837077509, 1.6512e-319, 1.2786509162007445e-13, -2.574574578605826e-13, 0.3924643572483078, 0.41781244385280525, -2.3278110671485517e-10, 7.554656740012722e-12, 0.14242216385303655, 0.44398756607233936, -1.1202712766276172e-11],
          [-1.6389201627389348e-11, -6.323570660503722e-06, 1.9324143206438786e-06, -9.442932397612276e-09, -2.1887768391615107e-07, -7.65629417595728e-11, 2.4715705950710933e-13, -5.7417324792144645e-05, 4.253459530027904e-05, 8.914445745609669e-13, 9.811826377877224e-08, -2.353083401236168e-10, 1.6027549243583826e-10, -3.4413159372837116e-08, -1.3010415216011804e-05],
          [-1.5411109520920296e-06, -1.663622045816107e-05, 2.170618970163373e-14, 3.704363132527228e-08, 3.771693816549026e-09, 5.45137808271486e-13, 6.01581912112131e-13, 2.6265914796436742e-08, 0.00010215866657733381, 2.7754880586827742e-08, 2.483137874169247e-10, -2.1070662927073282e-05, -3.089765142824133e-11, 4.656235493824424e-06, 1.5497964040892482e-12],
          [2.1382744163591975e-10, 0.4359346885368688, 0.22596557945997248, 1.1248721219113973e-13, 0.1828000898955287, 1.3169161120931098e-08, -1.7219290200881794e-10, -1.8833002741745044e-05, 0.32990879927020367, 0.23831182887792293, 3.192093268027219e-05, -1.867166666028153e-05, 0.12123578663472864, 0.2873817866657969, 1.2199466976703915e-07],
          [1.2331712538723948e-05, 0.5548873392160214, 0.34004702603104153, -2.2609880117893045e-07, 0.19985573542360593, 1.529907380214761e-10, -9.166265041744068e-12, 3.8957123633831066e-10, 0.38977129878670086, 0.4095398312084175, -4.91225e-319, -1.0318919320907011e-06, 0.12160474306189939, 0.3419433855789213, 2.4619230408343435e-13],
          [3.6007254417529678e-06, 0.3092603240199614, 0.08783929826039659, -1.7167884211541133e-07, 0.134343209648311, -2.0999e-319, 1.2708802024441707e-12, -8.037003972504423e-07, 0.14153781775336458, 0.4049816981667584, 8.948634527155987e-10, -1.1350133290212355e-07, 0.1143932325076813, 0.3905378034485033, 2.7158579854747306e-08],
          [-3.3745619533993984e-11, 0.46424454325466064, 0.08938132600776744, 5.740188027222592e-07, 0.38771330498554035, 9.171855101917504e-15, -7.97651583884281e-10, -4.468573264739934e-09, 0.3596582306564026, 0.17951922684118282, 7.317626502236257e-05, 1.1200305218686738e-12, 0.11176919366884558, 0.3522942287440243, 2.587739100086784e-12],
          [-5.005572917829929e-07, 2.8228752301877235e-06, -1.3811115841706567e-10, 1.7882144041283504e-09, -8.059957902918964e-13, -2.9567262840389483e-06, -5.842221499467823e-09, 1.810684671742965e-06, -1.144926125142473e-14, 9.75227551723806e-11, 1.3722218633484963e-11, -6.692815354714428e-08, 8.444085026483198e-07, 7.201123929881288e-09, -1.4723538821735325e-13],
          [-1.124498634866247e-11, 0.45461747540723935, 0.27832557034347716, 1.0902489747311488e-06, 0.4068466106130953, -6.426834641065691e-13, -3.748324574711051e-11, 2.1091611288273568e-08, 0.17705182286325094, 0.4766217470817498, 4.9687773107875557e-11, 4.648474710453608e-12, 0.2554076891227297, 0.14560972964876007, 1.3371448891566098e-09]
        ],
        [
          [-7.349270404983795e-06, 3.0636668137513354e-12, -6.845060009982672e-13, -1.0730151553811122e-12, 2.8554211507407074e-14, -4.605366889201739e-06, -2.7579969867279897e-12, 9.763020614843343e-11, 1.512687701708862e-10, -6.546574076687683e-05, 1.75077e-319, 2.980359544178118e-10, -9.981391725037052e-08, -3.310623622239025e-13, -9.237339206939451e-11],
          [5.2365973381980284e-09, 0.6151182050741526, 7.149665820602882e-11, -3.4423e-319, -6.437851199221147e-06, -7.592835753287819e-13, 0.5647301102727221, 0.39287962479979605, -1.819152421228708e-08, 5.212749873273695e-06, 0.31416624268294946, -1.204455657436854e-06, -1.7495522585994783e-12, -7.717458446103406e-07, 0.5886300669072877],
          [4.864322978521756e-07, 0.22284665405326115, -2.211896726745251e-12, 1.1137223861604922e-08, 2.101344158252806e-11, 1.2642602464307634e-11, 0.46140773492676945, 0.2712883293067161, -2.662562218879248e-14, 2.703810232594452e-10, 0.21740001812160456, -3.811706943127912e-12, -6.247203002177849e-06, -4.626238096709026e-08, 0.27736925887079017],
          [1.234210646460631e-06, 1.0641949542546149e-07, 1.818458956378532e-09, 7.544340903967164e-14, 4.368071622551191e-11, -4.363382669078341e-10, -4.1868104247392206e-08, -2.318954956422697e-12, -6.120885460119999e-07, -2.6134159109096112e-11, -1.8184848645240986e-10, -1.0843246531768227e-07, 4.876413188451891e-13, -9.434606012683899e-11, 1.9908314956637382e-07],
          [7.779605135687466e-08, 0.508906526957439, -2.4837714917030692e-05, -4.6692971937071644e-08, -2.043607081499693e-07, -1.4420870379787957e-07, 0.24946353141961095, 0.28683688914706573, 7.154935939715086e-05, 3.371795675085188e-07, 0.20824583370532124, 3.3080089027075493e-13, 2.3715414273461794e-10, 5.499353221905919e-10, 0.45740540531998486],
          [-1.3780256740108013e-12, 6.548485751500744e-08, -7.91604360357347e-05, -2.674827432953774e-10, -1.3844897217481257e-07, 1.727094179651024e-07, -1.292420908697337e-09, -1.2452348367752342e-12, 5.352849313955957e-12, -6.787357898342021e-13, 1.6981850616613207e-07, 5.5646889964952845e-06, 1.0068792684771384e-10, -5.15178467674837e-12, -8.636323668366832e-11],
          [-1.0368936936523681e-10, -4.94458021470572e-12, 9.223896019162243e-13, 1.7774914984794133e-13, -5.987124189835026e-13, -1.4622665922502172e-07, 3.741309158454191e-09, -1.3144082627454306e-12, 1.789590116841985e-11, -1.1060561726834162e-07, -1.7830943968271516e-12, 6.464345408097101e-09, -3.0601796914286524e-11, 8.779584203767676e-08, 1.4549403392367863e-09],
          [-1.5127957842512805e-09, -1.5973021450311135e-11, 1.7916917103946326e-11, -8.985030652092399e-13, -2.261176677171861e-09, 3.083431670592253e-06, -2.8124077118582254e-12, -6.716110862264712e-10, -1.667399743046333e-11, 3.212759749199427e-07, 3.3337808097284163e-13, 1.0487979118232694e-09, -7.032645025465395e-11, -6.100398442265763e-09, 2.3436049096205543e-10],
          [-1.2840600680171625e-10, 0.23029808278695013, -5.573890038938278e-10, -5.563734598422822e-13, -1.0029960671684863e-11, 8.161265090937429e-08, 0.43588358198424015, 0.5240531041388847, 1.3920905303329352e-07, 1.613466218519413e-12, 0.19915284060914745, -1.2497394398537452e-12, -2.6056826489198684e-09, 1.3946649789467857e-08, 0.23724627165983583],
          [-6.825126953561744e-09, 0.2369619968586982, 1.2312931378222037e-12, -1.0910424512633323e-11, -0.00014889690002142076, -3.418733375914285e-10, 0.5464380628969129, 0.5949637930928469, 2.9721564537846674e-10, 6.536523857437897e-07, 0.3056714520899448, -8.257648361385816e-06, 2.4765270785162434e-07, -3.0650766471178113e-13, 0.5972955631602674],
          [5.458879252662389e-13, 2.191364015565601e-13, 3.117657268253045e-08, 7.480893311530802e-06, 1.2706379176468031e-11, 2.1521501120944836e-13, 6.606721341539555e-11, 3.8720854903940374e-11, 9.879947213017427e-07, -1.1121197586899116e-09, 4.411460817724836e-06, -2.2169337276586914e-12, 1.518837146882142e-13, -6.669998715332747e-12, -2.034160170484103e-09],
          [0.00019400635213824357, -1.491479819169621e-10, 2.829935746390952e-13, -5.035751139802021e-11, 2.594601423542852e-09, 1.883283961767692e-11, 6.27201366957467e-11, 7.534002259871883e-11, 5.19176458494057e-13, -7.482971872666482e-05, 3.0346951968140863e-07, -4.508408103586232e-10, -3.0107920749035494e-06, 1.779522222171534e-05, 1.8119210081188267e-09],
          [9.698246879256979e-11, 0.29977939569008955, -1.1880442575652335e-13, 1.917738999312701e-05, -4.0810183818305943e-13, 2.591959591862217e-12, 0.22482249968372686, 0.16766882870671018, -2.496453086476162e-06, -5.616957407589728e-12, 0.10633654840805214, -8.97207024888169e-10, 2.152108201605369e-11, -1.9947772230304238e-10, 0.4043693087558018],
          [8.079422286632166e-13, 0.4510823822775693, 2.53466e-319, -1.0697562442953215e-10, 1.358609798538644e-11, -1.6164293425863685e-06, 0.5126836852352457, 0.6123316254537579, 1.989589568876727e-13, 5.8773627638891e-09, 0.2883934348806279, -9.74895630339496e-06, 7.0749877784047e-13, 8.702597912021015e-11, 0.11692020448553983],
          [-2.267864869536687e-12, 1.75578244098573e-09, 5.417287898572428e-06, -7.217592974157751e-07, -4.391215459727009e-13, 1.054418307251881e-09, -1.985535062404878e-09, -2.5829897664906402e-08, 5.038236092501311e-05, -3.711370710360059e-10, -1.6467008752553386e-12, -2.738740082216695e-10, 8.045800811410003e-06, -4.7638178119599843e-07, -1.0491559686043627e-06]
        ],
        [
          [3.181694975040437e-06],
          [0.7436672372281866],
          [-2.864851273391521e-05],
          [-4.367742484635363e-07],
          [5.343191147803655e-13],
          [-3.205333428533306e-11],
          [0.8340820610056594],
          [0.9018843426252915],
          [-1.1866480754368883e-09],
          [5.0430346544728464e-05],
          [0.39655695009945985],
          [8.814885660088342e-10],
          [7.713167527802448e-13],
          [3.452888271729257e-12],
          [0.8507283987281721]
        ]
      ],
      "split_point": 8.0
    },
    "objectives": [{
      "tag": "General Smoothness",
      "variant": "macro_smoothness",
      "indices": []
    }, {
      "tag": "Joint Limits",
      "variant": "joint_limits",
      "indices": []
    }, {
      "tag": "Self-Collision",
      "variant": "nn_collision",
      "indices": []
    }, {
      "tag": "Mimic Joint RHipYawPitch->LHipYawPitch",
      "variant": "joint_mirroring",
      "indices": [8, 2]
    }, {
      "tag": "Joint Control - HeadYaw",
      "variant": "joint_match",
      "indices": [0]
    }, {
      "tag": "Joint Control - Head Pitch",
      "variant": "joint_match",
      "indices": [1]
    }, {
      "tag": "EE Position Control",
      "variant": "position_match",
      "indices": [1, 6]
    }, {
      "tag": "EE Position Control",
      "variant": "position_match",
      "indices": [2, 6]
    }, {
      "tag": "Base Liveliness",
      "frequency": 5,
      "shape": [0.03, 0.03, 0.03],
      "variant": "base_link_position_liveliness",
      "indices": []
    }, {
      "tag": "EE Rotation Control",
      "variant": "orientation_match",
      "indices": [1, 6]
    }, {
      "tag": "EE Rotation Control",
      "variant": "orientation_match",
      "indices": [2, 6]
    }],
    "states": [],
    "robot_link_radius": 0.04,
    "rot_offsets": [
      [
        [0, 0, 0],
        [0, 0, 0],
        [0, 0, 0]
      ],
      [
        [0, 0, 0],
        [0, 0, 0],
        [0, 0, 0],
        [0, 0, 0],
        [0, 0, 0],
        [0, 0, 0],
        [0, 0, 0]
      ],
      [
        [0, 0, 0],
        [0, 0, 0],
        [0, 0, 0],
        [0, 0, 0],
        [0, 0, 0],
        [0, 0, 0],
        [0, 0, 0]
      ],
      [
        [0, 0, 0],
        [0, 0, 0],
        [0, 0, 0],
        [0, 0, 0],
        [0, 0, 0],
        [0, 0, 0]
      ],
      [
        [0, 0, 0],
        [0, 0, 0],
        [0, 0, 0],
        [0, 0, 0],
        [0, 0, 0],
        [0, 0, 0]
      ]
    ],
    "starting_config": [
      [0, 0, 0.33],
      [0, -0.07854, -0.09228599999999992, 0.1955125, -0.1, 0.2, -0.10342950000000005, -0.06438450000000003, 0.09228599999999992, -0.1955125, -0.1, 0.2, -0.1, 0.06, 1.4000000000000001, 0.3461454999999998, -0.6, -0.16999999999999998, 0.01, 1.4, -0.35, 0.6, 0.17, 0, 0.5, 0.5]
    ],
