{
     "axis_types": [
          [
               "z",
               "z",
               "z",
               "z",
               "z",
               "z",
               "z"
          ]
     ],
     "fixed_joints": [
          "panda_joint8",
          "panda_hand_joint"
     ],
     "base_link_motion_bounds": [
          [
               0,
               0
          ],
          [
               0,
               0
          ],
          [
               0,
               0
          ]
     ],
     "static_environment": {
          "cuboids": [
               {
                    "name": "Table",
                    "x_halflength": 0.3,
                    "y_halflength": 0.5,
                    "z_halflength": 0.01,
                    "rx": 0.0,
                    "ry": 0.0,
                    "rz": 0.0,
                    "tx": 0.0,
                    "ty": 0.0,
                    "tz": -0.01,
                    "is_dynamic": false,
                    "coordinate_frame": "panda_link0"
               }
          ],
          "spheres": [
               {
                    "name": "Gripper",
                    "radius": 0.12,
                    "tx": 0.0,
                    "ty": 0.0,
                    "tz": 0.15,
                    "is_dynamic": true,
                    "coordinate_frame": "panda_link7"
               }
          ],
          "pcs": []
     },
     "fixed_frame": "panda_link0",
     "modes": [
          {
               "name": "default",
               "weights": [
                    1.0,
                    2,
                    0.01,
                    30,
                    10,
                    20,
                    50,
                    50
               ]
          }
     ],
     "goals": [
          {
               "name": "default",
               "values": [
                    {},
                    {},
                    {},
                    {
                         "vector": [
                              0.5812051758174359,
                              -1.9356708116603083e-12,
                              0.676689944991155
                         ]
                    },
                    {},
                    {
                         "quaternion": [
                              4.825879518647093e-12,
                              0.9855551449068584,
                              1.2322746444968027e-16,
                              0.16935482380972014
                         ]
                    },
                    {
                         "scalar": 0.02
                    },
                    {}
               ]
          },
          {
               "name": "Grasp Pose",
               "values": [
                    {},
                    {},
                    {},
                    {
                         "vector": [
                              0.5812051758174359,
                              -1.9356708116603083e-12,
                              0.676689944991155
                         ]
                    },
                    {},
                    {
                         "quaternion": [
                              4.825879518647093e-12,
                              0.9855551449068584,
                              1.2322746444968027e-16,
                              0.16935482380972014
                         ]
                    },
                    {
                         "scalar": 0.04
                    },
                    {}
               ]
          }
     ],
     "joint_limits": [
          [
               -2.9671,
               2.9671
          ],
          [
               -1.8326,
               1.8326
          ],
          [
               -2.9671,
               2.9671
          ],
          [
               -3.1416,
               0.0873
          ],
          [
               -2.9671,
               2.9671
          ],
          [
               -0.0873,
               3.8223
          ],
          [
               -2.9671,
               2.9671
          ],
          [
               0,
               0.04
          ],
          [
               0,
               0.04
          ]
     ],
     "joint_names": [
          [
               "panda_joint1",
               "panda_joint2",
               "panda_joint3",
               "panda_joint4",
               "panda_joint5",
               "panda_joint6",
               "panda_joint7"
          ]
     ],
     "joint_ordering": [
          "panda_joint1",
          "panda_joint2",
          "panda_joint3",
          "panda_joint4",
          "panda_joint5",
          "panda_joint6",
          "panda_joint7",
          "panda_finger_joint1",
          "panda_finger_joint2"
     ],
     "joint_types": [
          [
               "revolute",
               "revolute",
               "revolute",
               "revolute",
               "revolute",
               "revolute",
               "revolute"
          ]
     ],
     "mode_control": "absolute",
     "mode_environment": "ECAA",
     "nn_jointpoint": {
          "intercepts": [
               [
                    1.4561007873574494,
                    -0.3720184770540469,
                    -0.3757408418986016,
                    1.5706997033712997,
                    1.3337521972257536,
                    1.9024255947026707,
                    1.373604505076482,
                    -0.3749760925942596,
                    -0.38182222901801666,
                    1.9911115223398126,
                    1.9964417353156854,
                    1.9270628099306037,
                    2.0763169862784396,
                    1.5780912012355917,
                    -0.02308418229330514
               ],
               [
                    1.5497303213086435,
                    -0.038456484657685884,
                    2.0478287044284986,
                    -0.004554383004772161,
                    1.8441184532434975,
                    1.8960123938502749,
                    1.9165187807372563,
                    1.9577082038658449,
                    1.4752638108226754,
                    -0.35958538963426695,
                    1.5862892984670176,
                    1.371353541577405,
                    -0.2631061625356243,
                    -0.21272381347590832,
                    1.4686748417007396
               ],
               [
                    1.5867591771317742,
                    -0.15209801711939508,
                    1.4721871179761694,
                    1.7260036039173763,
                    1.820358105295326,
                    1.9553565357568201,
                    -0.3546267758983787,
                    1.662817163159981,
                    -0.14137218543577232,
                    -0.1732813215423094,
                    1.6325773608872125,
                    2.087491226771211,
                    1.9148677504426335,
                    2.0239951874406352,
                    1.8261885791063495
               ],
               [
                    1.5525906172045452,
                    1.9261270857259467,
                    1.7009804691159591,
                    1.5470105105019127,
                    -0.012988847943750088,
                    1.6069085231408888,
                    -0.25832433131767474,
                    -0.01298847435057651,
                    1.7622913806219187,
                    1.6044987771126495,
                    1.2938759516286038,
                    1.758642542358953,
                    2.0493737180388183,
                    2.27917029098997,
                    1.3870820179753929
               ],
               [
                    1.9320779184519832,
                    -0.1072280340084737,
                    -0.3835096087818497,
                    1.3870596289623034,
                    1.7531084355616926,
                    -0.35870238329451726,
                    1.5888514653923367,
                    1.6029637441307025,
                    -0.3622844347924081,
                    -0.23274459106323847,
                    1.7823014933196295,
                    -0.30567946133680224,
                    -0.42931432991602453,
                    1.2558060955079995,
                    1.4937702997903677
               ],
               [
                    1.3691314764014557
               ]
          ],
          "coefs": [
               [
                    [
                         -9.43356127387839e-12,
                         -1.0260592564399809e-12,
                         6.87126033970773e-11,
                         -8.253034584391177e-09,
                         3.0406390414329514e-06,
                         1.3630299089028112e-10,
                         2.76710543865655e-07,
                         5.336667772733168e-10,
                         -2.14795e-319,
                         2.1666089473422526e-05,
                         -4.786227657383302e-13,
                         3.9656039433113975e-06,
                         4.864812025320474e-07,
                         0.0001565549098690822,
                         -3.0002489045871966e-10
                    ],
                    [
                         3.5249454168483296e-10,
                         -4.867259538184671e-11,
                         -1.3311580756871046e-12,
                         4.449619945487176e-11,
                         7.281988738325436e-07,
                         -3.558099749968546e-09,
                         -7.038428743597554e-13,
                         -1.7484525879908573e-05,
                         4.080027151349355e-08,
                         -2.2655335933059965e-06,
                         1.6798054775594292e-11,
                         1.1410460159731017e-13,
                         -1.5185585752134818e-11,
                         2.7120772142083188e-09,
                         1.1115353684575836e-10
                    ],
                    [
                         0.0032310424265632213,
                         -2.7902437090470765e-12,
                         1.0880777383897694e-10,
                         0.0035272963340254237,
                         0.002918747525628467,
                         0.004406448727903195,
                         0.00302002428478524,
                         -2.2271431552645162e-12,
                         1.4213074916825856e-13,
                         0.004647281409303671,
                         0.00466197776499458,
                         0.004473168083661447,
                         0.004881365786276287,
                         0.0035465330631817213,
                         -1.7213354179828183e-07
                    ],
                    [
                         -2.963803348073592e-12,
                         6.338402015976001e-11,
                         4.7034647775879817e-07,
                         -4.4537815933460075e-08,
                         7.906538052118048e-12,
                         -8.83305324063754e-06,
                         9.238342659096165e-08,
                         9.886265443847324e-09,
                         1.928439153322204e-09,
                         1.3908051462376173e-10,
                         1.2332098915415644e-11,
                         -9.815161606577694e-07,
                         -5.419839969844828e-08,
                         -4.640465993385909e-12,
                         5.18199793762923e-09
                    ],
                    [
                         2.9209224260684116e-08,
                         6.66637468288515e-08,
                         -4.558674920685112e-09,
                         1.0971027554397397e-06,
                         -8.82846353118789e-11,
                         3.6267869102163592e-06,
                         1.2874996581472679e-05,
                         -5.656113464028947e-06,
                         9.18372082021051e-12,
                         -0.00015881082813385395,
                         1.2877124428104034e-08,
                         -1.7794902432853048e-09,
                         -1.2607751357663665e-11,
                         -9.467492261105066e-14,
                         4.272115921412309e-08
                    ],
                    [
                         0.0032310424265632213,
                         2.35615e-319,
                         -3.123199690982724e-10,
                         0.0035272963340254237,
                         0.002918747525628467,
                         0.004406448727903195,
                         0.00302002428478524,
                         -6.638121939234319e-13,
                         7.683493591126642e-05,
                         0.004647281409303671,
                         0.00466197776499458,
                         0.004473168083661447,
                         0.004881365786276287,
                         0.0035465330631817213,
                         1.4360885973774994e-14
                    ],
                    [
                         -0.00044647076282352307,
                         3.977594843128323e-09,
                         6.72848153384215e-07,
                         -0.0004578232934647239,
                         -0.00043175516669639516,
                         -0.00048273210381279076,
                         -0.0004368886145010238,
                         -1.1951669899063042e-05,
                         1.2062841392744433e-06,
                         -0.0004883385873632818,
                         -0.0004886701071673825,
                         -0.00048431528036718604,
                         -0.0004935443879707586,
                         -0.00045849005090924414,
                         1.3351748217223696e-08
                    ],
                    [
                         0.0007329141406612822,
                         3.774890447223801e-13,
                         -8.950176830456516e-09,
                         0.0007252366193004705,
                         0.0007417002763502762,
                         0.0007066090043563424,
                         0.0007387706623856528,
                         -5.417719227412286e-07,
                         3.71063e-319,
                         0.0007028881385763147,
                         0.000702682576616152,
                         0.0007055066299423926,
                         0.0006999880584035807,
                         0.0007247599348504382,
                         -4.245435486737696e-08
                    ],
                    [
                         0.0006615660853445326,
                         3.02003e-319,
                         1.997547943075907e-09,
                         0.0007597917592541367,
                         0.0005580296030454979,
                         0.0010506308847343464,
                         0.0005915975221483558,
                         -3.904716235857087e-05,
                         6.846896072247878e-07,
                         0.001130044250060533,
                         0.0011348893530883193,
                         0.0010726454882657448,
                         0.00120711453556919,
                         0.0007661678840619634,
                         6.568489184396283e-13
                    ],
                    [
                         -0.001028185864609847,
                         -6.187338655366846e-11,
                         -3.435566257895246e-10,
                         -0.0010453216528381079,
                         -0.0010060976687517873,
                         -0.0010800747304621817,
                         -0.0010137575322586615,
                         1.0951726644950425e-05,
                         -1.7254090272883871e-09,
                         -0.0010866941891448801,
                         -0.0010870669900426226,
                         -0.0010819977658849524,
                         -0.0010923683837086918,
                         -0.001046320666959041,
                         -1.2266981345343093e-12
                    ],
                    [
                         0.0009698405165720848,
                         -6.944e-320,
                         -7.576372375116952e-05,
                         0.0009676805751671016,
                         0.0009726811841006587,
                         0.0009628304976058398,
                         0.0009716814823206446,
                         2.1702921436201464e-08,
                         -1.9565163406375372e-13,
                         0.0009617771341391026,
                         0.000961714314317919,
                         0.0009625249482574713,
                         0.000960878847491467,
                         0.0009675533257409754,
                         1.9590684971856593e-12
                    ],
                    [
                         0.0004776542512777641,
                         -4.679360388633758e-09,
                         -7.33225723110615e-12,
                         0.0005627592807796551,
                         0.00038865389873855795,
                         0.0008176548626903207,
                         0.00041742108275708104,
                         -2.254383089944863e-08,
                         5.572816865320012e-07,
                         0.000887845629952272,
                         0.0008921354011153484,
                         0.0008370914071995305,
                         0.0009561612209529023,
                         0.0005683035747344706,
                         8.722327202714984e-13
                    ],
                    [
                         0.000600865126726975,
                         -2.1591826394214855e-06,
                         3.31726453677047e-12,
                         0.0005968469095199672,
                         0.000605090388823488,
                         0.0005844096883693805,
                         0.0006037143815168022,
                         1.6161881205726406e-11,
                         1.4616288244875245e-12,
                         0.0005808545078447027,
                         0.0005806338874151937,
                         0.0005834292457617576,
                         0.0005773489183225854,
                         0.0005965838108082844,
                         -2.2035895944971852e-07
                    ],
                    [
                         -0.00035448281831059695,
                         -5.761622385694059e-13,
                         4.057783776447817e-12,
                         -0.00036002349354618743,
                         -0.00035209391988238965,
                         -0.0003904389580284605,
                         -0.0003524510926520591,
                         -9.04627522720878e-11,
                         5.269382753326181e-13,
                         -0.0004012593687068203,
                         -0.000401941954809408,
                         -0.0003933589684358683,
                         -0.000412408168009305,
                         -0.00036048205370640935,
                         -7.175109004373215e-12
                    ],
                    [
                         1.2508898688284512e-05,
                         -1.0511929575773122e-06,
                         9.63791440491567e-08,
                         4.251545307963996e-05,
                         -1.8836483192114677e-05,
                         0.00013287384952798102,
                         -8.705799482376777e-06,
                         -1.02194141570327e-13,
                         -8.544159975869478e-07,
                         0.00015792605886481137,
                         0.0001594608151263089,
                         0.00013980347205995116,
                         0.00018239012281862153,
                         4.447230587984881e-05,
                         -8.278676786780436e-14
                    ],
                    [
                         0.000600865126726975,
                         3.1999247985402955e-11,
                         -1.1931192910824268e-10,
                         0.0005968469095199672,
                         0.000605090388823488,
                         0.0005844096883693805,
                         0.0006037143815168022,
                         2.5529623398786314e-07,
                         -1.0145357246038656e-07,
                         0.0005808545078447027,
                         0.0005806338874151937,
                         0.0005834292457617576,
                         0.0005773489183225854,
                         0.0005965838108082844,
                         3.8362623770452295e-08
                    ],
                    [
                         -0.00035448281831059695,
                         -4.680797498642089e-12,
                         -9.272357088923652e-05,
                         -0.00036002349354618743,
                         -0.00035209391988238965,
                         -0.0003904389580284605,
                         -0.0003524510926520591,
                         -3.853e-319,
                         -3.599969998875278e-08,
                         -0.0004012593687068203,
                         -0.000401941954809408,
                         -0.0003933589684358683,
                         -0.000412408168009305,
                         -0.00036048205370640935,
                         -1.2544462001295433e-10
                    ],
                    [
                         1.2508898688284512e-05,
                         -1.4702777141741857e-10,
                         1.527458244736825e-09,
                         4.251545307963996e-05,
                         -1.8836483192114677e-05,
                         0.00013287384952798102,
                         -8.705799482376777e-06,
                         5.820635302074418e-10,
                         -7.242457672772635e-05,
                         0.00015792605886481137,
                         0.0001594608151263089,
                         0.00013980347205995116,
                         0.00018239012281862153,
                         4.447230587984881e-05,
                         -2.4220557617353935e-08
                    ],
                    [
                         0.00044281327005197375,
                         2.845415090798012e-13,
                         5.569884171630148e-11,
                         0.0004369128308777131,
                         0.000449758614205478,
                         0.0004216593733580398,
                         0.0004474073373159142,
                         2.1637672589522125e-07,
                         6.174619027882137e-05,
                         0.0004178066886406891,
                         0.000417572605135679,
                         0.0004205827007420839,
                         0.0004141241848527168,
                         0.0004365476234915644,
                         7.970267021982093e-09
                    ],
                    [
                         0.00019344431317796585,
                         -1.4855894862394768e-12,
                         -5.225812237027175e-13,
                         0.00020514405309910924,
                         0.00018110475109400895,
                         0.00023889345734571328,
                         0.00018510238203321873,
                         -2.4306383984140554e-07,
                         4.55634035685638e-13,
                         0.0002476805944764011,
                         0.0002482082647917532,
                         0.0002413515754285555,
                         0.00025597977647599053,
                         0.0002059013560500874,
                         -7.176760792830307e-13
                    ],
                    [
                         8.270463658834086e-05,
                         -1.2830498954641378e-05,
                         1.1772510995620554e-10,
                         0.00011218959649967037,
                         5.166370071150108e-05,
                         0.00020028697389765305,
                         6.173050933601846e-05,
                         -1.4541892562376695e-12,
                         -5.382892896666724e-11,
                         0.0002246075941436725,
                         0.00022609628286247608,
                         0.00020701747246077085,
                         0.00024832695136218065,
                         0.00011410681475786265,
                         0.00011669204387371654
                    ],
                    [
                         0.0005960187856618392,
                         1.8622920897128403e-08,
                         -1.520928581985932e-11,
                         0.0005954426336029963,
                         0.0005996119361519139,
                         0.0006070869239832115,
                         0.0005980916736092279,
                         7.529761257238588e-07,
                         1.9755900260937795e-06,
                         0.0006130692132931462,
                         0.0006134641803834332,
                         0.0006086416721929624,
                         0.0006197826209015389,
                         0.0005954934571901774,
                         -2.7896714486207065e-06
                    ],
                    [
                         -7.417418050323192e-05,
                         -2.7951e-319,
                         4.0901427942961795e-05,
                         -5.965913995857776e-05,
                         -8.658677932689104e-05,
                         -5.607753208863853e-06,
                         -8.29118624280609e-05,
                         3.4004032665901274e-07,
                         1.0017099957895216e-06,
                         1.0861910228730255e-05,
                         1.1878227860924841e-05,
                         -1.0849783389916797e-06,
                         2.7142760619118273e-05,
                         -5.863512180218094e-05,
                         -2.382282629479443e-08
                    ],
                    [
                         -2.8864321633951623e-05,
                         -3.6223696285820005e-12,
                         1.6334947506238934e-12,
                         -9.232470258162972e-07,
                         -5.790572737416415e-05,
                         8.328805246140063e-05,
                         -4.854392790179499e-05,
                         -1.7338779044396106e-10,
                         5.933247313969115e-14,
                         0.00010655759459360886,
                         0.00010798162259868293,
                         8.972953956815122e-05,
                         0.00012923149016506812,
                         9.012902094660474e-07,
                         9.868982181295944e-06
                    ]
               ],
               [
                    [
                         0.032695053795788166,
                         -1.865007436512687e-05,
                         0.05237767329060141,
                         8.66503735119217e-06,
                         0.04126284372872318,
                         0.04348189188318871,
                         0.04356716519826396,
                         0.046592303335417765,
                         0.030415047087187477,
                         -3.774030810285908e-09,
                         0.03395847227886852,
                         0.0276477698348679,
                         2.844269794018168e-11,
                         4.266249578660675e-05,
                         0.030250265581119814
                    ],
                    [
                         -4.0400805134224583e-07,
                         1.0793882325584235e-12,
                         -6.177418494841983e-06,
                         -2.6328795571800158e-06,
                         -2.2090069616745586e-11,
                         -7.754103813815353e-06,
                         7.99513536827128e-13,
                         -3.0935091195544546e-07,
                         -3.056820289163466e-10,
                         2.393746102430416e-07,
                         1.826475054677348e-11,
                         3.904726665486935e-07,
                         2.2478989942710168e-08,
                         -3.1315461798554527e-07,
                         -5.742244247930604e-11
                    ],
                    [
                         -6.846449685000385e-10,
                         2.03496e-319,
                         -3.5160746402499225e-09,
                         2.2205290846707183e-08,
                         0.00011822899294265917,
                         -1.3453262448752164e-07,
                         -2.77025317939804e-08,
                         3.057107977136762e-13,
                         2.102460411322565e-09,
                         8.676458996866758e-14,
                         6.896118885582478e-11,
                         1.3155280409532784e-09,
                         -6.030632243713841e-13,
                         5.588152783602521e-13,
                         -2.986436947569076e-05
                    ],
                    [
                         0.035413191670711996,
                         -7.087160028697869e-10,
                         0.056999698733860724,
                         7.749716621049187e-07,
                         0.044745581561325146,
                         0.0471813815794892,
                         0.04726112112607308,
                         0.05060557600428476,
                         0.03292779193236316,
                         1.8777144223978072e-06,
                         0.03679391570341998,
                         0.029920810505819514,
                         1.0098621414377066e-12,
                         -5.920940641312002e-10,
                         0.032748998140386246
                    ],
                    [
                         0.029810644743984756,
                         -3.391716557790029e-08,
                         0.04752922188546085,
                         -2.6898601118219207e-08,
                         0.03757684225017537,
                         0.03957258948719252,
                         0.039660824287803924,
                         0.04236178692671138,
                         0.02774549536211506,
                         6.476969135925135e-09,
                         0.030952066497734125,
                         0.025230873651904868,
                         -4.249855961538827e-11,
                         2.6351639467597433e-06,
                         0.027595539849799598
                    ],
                    [
                         0.043374482467463865,
                         -3.49331501879656e-07,
                         0.07087549147680232,
                         1.983335596492556e-12,
                         0.054999722689208004,
                         0.05811004099552167,
                         0.058155115294060394,
                         0.0625244538493076,
                         0.040269895248927434,
                         -5.487003438381624e-05,
                         0.045113235767447,
                         0.036551748861836826,
                         5.0090792374289304e-11,
                         4.372831398642788e-09,
                         0.040049880853773034
                    ],
                    [
                         0.03074821309494204,
                         -9.93e-320,
                         0.04909908891172147,
                         -1.493048129720749e-08,
                         0.03877387498224436,
                         0.04084147521160958,
                         0.040929056857955365,
                         0.04373380951097203,
                         0.02861356658506821,
                         2.5060732610142325e-13,
                         0.03192901775806369,
                         0.026017012595561176,
                         -4.851291715737031e-05,
                         -9.352288323902791e-09,
                         0.028458797142003812
                    ],
                    [
                         -1.3620875196120295e-09,
                         -2.284216912499239e-12,
                         2.301936459974335e-13,
                         -4.207651082405342e-06,
                         -3.6805588621199214e-13,
                         -8.97750824772893e-11,
                         8.709402742601605e-09,
                         -4.652718262881419e-06,
                         -2.0017287334091273e-11,
                         -3.396214498409992e-11,
                         4.922255211044119e-08,
                         1.5667864869582395e-05,
                         6.07410423406645e-12,
                         1.3107269066611352e-14,
                         -1.4673515972788787e-05
                    ],
                    [
                         1.2089670380735473e-08,
                         -5.944797247782132e-10,
                         5.275581144120668e-09,
                         2.792795019041079e-08,
                         -3.2695e-319,
                         -4.26490060666271e-11,
                         3.509268713591796e-12,
                         1.8324613400718332e-07,
                         1.4876347299606872e-07,
                         -7.741384345909076e-07,
                         2.8873958101178864e-09,
                         -4.058443114816309e-07,
                         4.885918661931705e-13,
                         -2.0010497325098522e-05,
                         -1.542606798183788e-13
                    ],
                    [
                         0.045527302798364394,
                         -0.00012201203849017688,
                         0.0747242285274442,
                         2.2970859479266117e-08,
                         0.05778672682286012,
                         0.061090889801773324,
                         0.06112090646061263,
                         0.06579440768060461,
                         0.04225040966068888,
                         2.9655262523813553e-08,
                         0.04736697684293014,
                         0.038337616713414485,
                         8.702803430817989e-09,
                         -4.277920843625017e-11,
                         0.042019217490170915
                    ],
                    [
                         0.045657051580603535,
                         1.1234488006438875e-12,
                         0.07496810105832069,
                         1.3760354263612912e-05,
                         0.057954903371297425,
                         0.061271151227072884,
                         0.06129996683450972,
                         0.06599229147625306,
                         0.04236969759346156,
                         -1.9394271013844143e-12,
                         0.0475028751611165,
                         0.03844514035301395,
                         -6.068e-320,
                         -1.9164603656638956e-07,
                         0.042137831443364526
                    ],
                    [
                         0.04397149272604161,
                         -1.511684991622021e-11,
                         0.07194389409104647,
                         -5.762027289097059e-11,
                         0.05577198979883936,
                         0.05893563883763884,
                         0.058976700899726155,
                         0.0634290858576431,
                         0.04081933929328612,
                         -1.818589946908037e-12,
                         0.045738052004633274,
                         0.03704731383030829,
                         2.3413549711315423e-10,
                         -5.854297261743185e-13,
                         0.04059622594259648
                    ],
                    [
                         0.047605746925143556,
                         -5.6774440666338715e-08,
                         0.07850131161173493,
                         1.2681603573512725e-10,
                         0.06048339087404666,
                         0.06398007580848075,
                         0.0639926906320939,
                         0.06897283517090955,
                         0.044160363660523096,
                         1.948333251027171e-09,
                         0.04954469788013274,
                         0.04005869877055021,
                         -0.00017850209288573213,
                         1.5645653511046172e-10,
                         0.04391837396656228
                    ],
                    [
                         0.03558906337641298,
                         -0.00015521697600548456,
                         0.05730077088810776,
                         2.375047995148502e-12,
                         0.04497123831396613,
                         0.04742128475063726,
                         0.04750056716036417,
                         0.050866174866786774,
                         0.03309027335346449,
                         2.1985918788509576e-05,
                         0.036977458929898094,
                         0.03006772818746866,
                         -5.95730010928748e-07,
                         5.870958672718318e-09,
                         0.0329105716674807
                    ],
                    [
                         -7.133217241190452e-12,
                         6.857048614630141e-07,
                         -2.753517411899526e-06,
                         -4.397308008595628e-11,
                         -4.0936750084064684e-10,
                         -9.958824254277442e-13,
                         1.89818030316672e-10,
                         4.96134555371237e-08,
                         2.9473761560736466e-11,
                         -3.0151e-319,
                         -4.383340820173157e-13,
                         8.366611459635013e-05,
                         -4.105149327538345e-07,
                         -1.1453712092642418e-11,
                         3.2118910518899143e-10
                    ]
               ],
               [
                    [
                         0.0498659703864176,
                         8.684164017362291e-11,
                         0.04940737445521485,
                         0.05579095471943712,
                         0.06075187240808138,
                         0.0687706813506432,
                         -6.3805947601035215e-09,
                         0.05308312462649532,
                         -3.233723353073137e-05,
                         -2.8205801558653227e-10,
                         0.08590880362850553,
                         0.07849452448454647,
                         0.0817391290835705,
                         0.09692387411703142,
                         0.06061280277198131
                    ],
                    [
                         -7.855785503100526e-10,
                         -1.1653869295717496e-09,
                         2.186656157699308e-12,
                         6.847541283711556e-11,
                         -2.3909e-319,
                         2.1616176793234156e-11,
                         -2.276214182386758e-11,
                         -2.2214695643694095e-13,
                         -1.3726445591700863e-07,
                         1.787309870553175e-12,
                         4.7133778867582085e-09,
                         4.948633860160076e-08,
                         2.391830747935789e-05,
                         1.0450065696935288e-05,
                         2.0522762800400026e-06
                    ],
                    [
                         0.07274557142462472,
                         -9.258072288307039e-05,
                         0.07282398711374309,
                         0.08175882052601964,
                         0.08951808934810053,
                         0.10231790997650661,
                         -4.071081814524939e-09,
                         0.07762987533524195,
                         -5.276284393201556e-08,
                         5.730066430817134e-10,
                         0.13674112454334883,
                         0.11827292374399327,
                         0.1259452867852477,
                         0.15291509976632756,
                         0.0892340861045082
                    ],
                    [
                         1.2365916283894554e-07,
                         -7.3278803622614656e-09,
                         2.4694286588578676e-13,
                         -3.3803643086303175e-07,
                         1.155724914545186e-05,
                         -1.095577859495951e-09,
                         5.8526074827443273e-08,
                         -1.6368102783426825e-08,
                         -7.849639912627126e-08,
                         -1.89885010886498e-09,
                         1.7632507142034063e-09,
                         -6.802127685738719e-14,
                         7.359154225026605e-07,
                         0.0002150735541258491,
                         -3.090795344264077e-12
                    ],
                    [
                         0.06109331376807362,
                         1.529154793127672e-05,
                         0.06078640710667168,
                         0.06843822268828141,
                         0.07464789814538351,
                         0.08474090326321149,
                         1.606092095321996e-08,
                         0.06507970036442987,
                         -6.97429082414435e-09,
                         -2.946186948707518e-07,
                         0.10803572375519163,
                         0.0970726320202443,
                         0.10178922307883942,
                         0.12136651131977522,
                         0.07445242213346295
                    ],
                    [
                         0.06360685348656281,
                         1.1272751446789282e-08,
                         0.06336065717042041,
                         0.0712983496814694,
                         0.07782399561614935,
                         0.0884614209515394,
                         -3.5536064403925668e-12,
                         0.0677800783334916,
                         4.035763674899083e-08,
                         -0.00022553214752450224,
                         0.11380054825265823,
                         0.10151640864432629,
                         0.10672528107564966,
                         0.12767096156888313,
                         0.07761209997074428
                    ],
                    [
                         0.06399426525723075,
                         -8.98683814026938e-06,
                         0.06374898840166773,
                         0.07171366728790209,
                         0.07825793910259887,
                         0.08891224041611487,
                         3.90475e-319,
                         0.06818335506842453,
                         -2.882584426048666e-13,
                         -1.715638763640878e-08,
                         0.11401678868997583,
                         0.10195974821865111,
                         0.1071269433399329,
                         0.12796448549475675,
                         0.07804563172675637
                    ],
                    [
                         0.0669481026060517,
                         -3.4477930967887227e-07,
                         0.06680109500288463,
                         0.07511341797411022,
                         0.08207657242686987,
                         0.0934757524805375,
                         -1.6361444252533054e-05,
                         0.07137641736300683,
                         3.2218534612387673e-12,
                         1.2399641698931752e-05,
                         0.12186687204048187,
                         0.10755689160250397,
                         0.1135462118490439,
                         0.13646909311332425,
                         0.08184056097972461
                    ],
                    [
                         0.04692713781426161,
                         -2.11786e-319,
                         0.04644691169144859,
                         0.05247468996955872,
                         0.05710491960338224,
                         0.06457129443629257,
                         -9.286194213452407e-06,
                         0.049940127685286224,
                         1.794279022100536e-12,
                         4.0083929367396976e-12,
                         0.08008901352021547,
                         0.07359195484535379,
                         0.07646659167175109,
                         0.09041289944705187,
                         0.05697940884749595
                    ],
                    [
                         -1.3477343168699082e-12,
                         1.6362959882435015e-11,
                         -1.601218205720868e-05,
                         1.974584480600165e-10,
                         1.5383423291248563e-12,
                         3.179877602191134e-11,
                         -2.6909490209644797e-07,
                         -1.4225253566951663e-07,
                         -5.328421984814305e-06,
                         6.594427813318992e-13,
                         -3.561036386237966e-12,
                         -5.889434429844155e-12,
                         -0.0001417472314815896,
                         3.9893500182518804e-08,
                         -4.1225081225150704e-08
                    ],
                    [
                         0.05141864359579755,
                         -2.978022438399027e-12,
                         0.050975880100052946,
                         0.057548967648881816,
                         0.06269191208639256,
                         0.07101847215262935,
                         -3.215066345881622e-08,
                         0.05474668326889006,
                         9.48590926616999e-05,
                         -3.162321621702594e-10,
                         0.08912827581717278,
                         0.0811410870627951,
                         0.08461105135016446,
                         0.10054116457839227,
                         0.06254500032374871
                    ],
                    [
                         0.04314237011960732,
                         1.1810653503265557e-06,
                         0.04264777445690671,
                         0.04822164847063954,
                         0.05244798540473362,
                         0.059250548425429504,
                         -1.7353456199389504e-11,
                         0.045901483193485096,
                         -4.5373e-319,
                         -8.881402130538354e-11,
                         0.07302287385895809,
                         0.06744778427908499,
                         0.06993526581277655,
                         0.08253598501853299,
                         0.05233791455582766
                    ],
                    [
                         -9.02417101022645e-12,
                         -2.5986416225366674e-08,
                         3.7353874175068605e-06,
                         -7.206930396421691e-06,
                         3.8613737858565124e-07,
                         -3.806131297109111e-08,
                         1.3799161080783693e-10,
                         5.389173066208073e-06,
                         4.2489246604190223e-07,
                         -1.1348279599839361e-08,
                         1.5482716626885185e-06,
                         -4.016344741633067e-13,
                         -2.1464e-319,
                         7.6500966135373e-09,
                         -1.558487527883691e-05
                    ],
                    [
                         -2.190425808280627e-12,
                         3.825030260409156e-11,
                         -5.344215405828883e-13,
                         -1.0205034036694573e-06,
                         -2.061097615945171e-09,
                         2.32043e-319,
                         -2.3084591596114177e-07,
                         -2.6765385154017444e-11,
                         -6.217748805743179e-14,
                         5.074187657988642e-06,
                         -1.541902083637478e-11,
                         1.8292495599248082e-06,
                         -3.599133966526197e-06,
                         -2.9086899761549714e-09,
                         -3.780573620452047e-10
                    ],
                    [
                         0.04669567360350042,
                         -2.3137883942291952e-14,
                         0.0462143197309639,
                         0.052215101613278796,
                         0.05682117370226927,
                         0.06424817165579855,
                         2.592019636790944e-07,
                         0.04969339501170951,
                         2.0400724426029936e-11,
                         3.2069659411884474e-14,
                         0.07966604967652077,
                         0.07322070937841657,
                         0.07607298800932913,
                         0.08994493680556778,
                         0.05669660186011018
                    ]
               ],
               [
                    [
                         0.10088445570046896,
                         0.1310616288195729,
                         0.05151102647412414,
                         0.05760915236109668,
                         2.396211643762202e-13,
                         0.06966971192405114,
                         3.271044548814857e-11,
                         -1.7410674262553614e-07,
                         0.09427271186933099,
                         0.05878682483558144,
                         0.046586711252642264,
                         0.053655145889813356,
                         0.0661899639958878,
                         0.08645497040324689,
                         0.0526599015227304
                    ],
                    [
                         1.4851323480127522e-12,
                         4.728873497480491e-12,
                         3.6455668285855774e-05,
                         3.2346232809728585e-06,
                         -8.265303601565671e-11,
                         4.587975527923354e-13,
                         -2.0134053737377598e-08,
                         -2.3283959743205004e-09,
                         -5.87241691427017e-07,
                         5.175305299734807e-10,
                         -4.102167666338772e-07,
                         -4.816472233419966e-09,
                         2.933706212653957e-13,
                         -1.6191231799191726e-11,
                         6.496386717620983e-10
                    ],
                    [
                         0.09888862347212506,
                         0.1299955621611494,
                         0.04982692124484448,
                         0.05577790291075902,
                         9.267542477070962e-09,
                         0.06763942032585274,
                         -9.660165827068704e-13,
                         -6.275810470397575e-12,
                         0.09217004211392266,
                         0.05693411336730664,
                         0.045001331374325305,
                         0.051922585891588525,
                         0.0642168301020364,
                         0.08428947539936642,
                         0.05092912828814563
                    ],
                    [
                         0.11245595675327698,
                         0.14613066067530453,
                         0.05697456107825321,
                         0.0638900503345024,
                         1.138999181637655e-09,
                         0.07739234871676376,
                         2.0536632500446244e-07,
                         -2.775357162460465e-06,
                         0.10492453123667815,
                         0.06518180530009852,
                         0.0516567951911886,
                         0.059350260258710326,
                         0.0732654923733825,
                         0.09589175666357519,
                         0.058420414345519346
                    ],
                    [
                         0.12196057350257936,
                         0.15878613428001845,
                         0.06126423123699063,
                         0.06886723459040321,
                         2.1507566872054235e-10,
                         0.08357069608040683,
                         7.212016888559232e-06,
                         -1.3644874694349975e-10,
                         0.11359954065924174,
                         0.07024899341792308,
                         0.05565499335092557,
                         0.06382614823753294,
                         0.07886368118551547,
                         0.10346864226862934,
                         0.0629797563919878
                    ],
                    [
                         0.1373370725883086,
                         0.17909516385536448,
                         0.06796280657486917,
                         0.07670477094075935,
                         -3.442684865671346e-07,
                         0.09336374933571663,
                         -2.39198983666755e-08,
                         6.465858585808138e-05,
                         0.12748247597260393,
                         0.07822458407459686,
                         0.061938304751819724,
                         0.0708185894664902,
                         0.08763959469694543,
                         0.11545345498968775,
                         0.07016094331960374
                    ],
                    [
                         -2.5438362213058845e-12,
                         9.415774966662284e-12,
                         9.8646202133703e-08,
                         -5.974773372784327e-10,
                         -7.945655192409296e-13,
                         -2.283929707505627e-13,
                         2.6154305558497853e-11,
                         -2.712903660544531e-05,
                         4.806620228093299e-11,
                         8.727057915879629e-07,
                         -4.748190128023727e-13,
                         2.798373527394513e-12,
                         1.5513495039220113e-07,
                         -0.00019521866903169472,
                         2.8305329031385046e-13
                    ],
                    [
                         0.10716397819474338,
                         0.1392420991540539,
                         0.0544855494721182,
                         0.061024172097527425,
                         -8.67136250747746e-13,
                         0.07386575166593988,
                         9.01636027614686e-11,
                         -2.389076552986979e-13,
                         0.10005674431037376,
                         0.062264305382524775,
                         0.049343317138846036,
                         0.05675570612423697,
                         0.07004121268563375,
                         0.09158729562195025,
                         0.055791294104009105
                    ],
                    [
                         4.7017918405705137e-07,
                         1.5215891597742466e-11,
                         3.9501e-319,
                         -1.4544197520603668e-12,
                         -5.567546662019526e-11,
                         -6.113320149388426e-06,
                         -7.465071536465909e-09,
                         -2.3189905252871986e-09,
                         -1.1481368305547726e-11,
                         -4.110625656234661e-05,
                         2.75096e-319,
                         -1.1624714679332406e-11,
                         1.1575143142070661e-10,
                         8.634240256964738e-09,
                         -4.3731405804149565e-12
                    ],
                    [
                         -7.13071328165041e-11,
                         -6.709495521690009e-13,
                         -1.5617304822648901e-06,
                         -0.00015154931995795608,
                         3.325340308651257e-09,
                         -4.167955465710981e-13,
                         2.580774179936159e-06,
                         -2.104204394471913e-13,
                         -3.183350398299113e-10,
                         -6.564300321779124e-08,
                         -7.766381412196063e-11,
                         5.422529945969965e-10,
                         3.564059735993961e-14,
                         2.2371984726376446e-06,
                         1.4439194790670958e-11
                    ],
                    [
                         0.16287826332507352,
                         0.22117431419772737,
                         0.0748534022048649,
                         0.085539696207995,
                         -1.6522201411589634e-10,
                         0.10582607244287803,
                         -2.1358057792708906e-05,
                         -1.9659696038190447e-06,
                         0.14929621413877497,
                         0.08725794738152585,
                         0.06840776975002867,
                         0.07813514288926701,
                         0.09779634411527251,
                         0.13193370149285172,
                         0.07799098914223912
                    ],
                    [
                         0.1554448950269566,
                         0.20416729450191412,
                         0.07565066873405726,
                         0.08580540799113866,
                         -2.4487296451731172e-06,
                         0.10482713856006061,
                         8.104836537897939e-07,
                         -3.7599705278993483e-13,
                         0.14394586780136145,
                         0.08747892985535374,
                         0.06921592367790474,
                         0.07884821440523558,
                         0.097761291928237,
                         0.12942874744283803,
                         0.07850337882411401
                    ],
                    [
                         0.1595664736852371,
                         0.21153286883740915,
                         0.07562882415564713,
                         0.08605146739409186,
                         2.1316055217507828e-11,
                         0.10567837775075696,
                         2.0002843901644824e-06,
                         -5.931207307252568e-07,
                         0.14671516605734808,
                         0.0877511924824198,
                         0.06917424385957285,
                         0.07887378043066699,
                         0.09817309702919598,
                         0.1310077577688413,
                         0.07862246613190733
                    ],
                    [
                         0.1874814316593395,
                         0.24938210743388153,
                         0.08639674315796987,
                         0.09908620350771216,
                         9.365490397814693e-07,
                         0.12239622227900183,
                         3.132692856492483e-08,
                         1.0461702002643994e-06,
                         0.1715265237713426,
                         0.10098884565857173,
                         0.07952870754349291,
                         0.09013412100847952,
                         0.11249681763554273,
                         0.1512727285809155,
                         0.090574570370945
                    ],
                    [
                         0.12178818172152661,
                         0.15841173888368124,
                         0.06124715342194628,
                         0.0688383342814113,
                         2.1361805414287795e-07,
                         0.08351574034806553,
                         1.7496804245598093e-05,
                         -1.468170273442383e-08,
                         0.113463579786274,
                         0.07021861789296752,
                         0.05564084610593492,
                         0.06380643223509659,
                         0.07882418221570203,
                         0.1033762713735675,
                         0.06295756910666005
                    ]
               ],
               [
                    [
                         0.27799069539873866,
                         2.242494137965769e-14,
                         4.105936259957946e-05,
                         0.21628248631326102,
                         0.06652174829425776,
                         -7.636616745228222e-09,
                         0.13473034077649818,
                         0.2529739771375885,
                         2.3205617401336072e-05,
                         3.8393649248868655e-09,
                         0.06721075706996447,
                         4.591214433919921e-12,
                         5.859850421934188e-11,
                         0.15154338386182564,
                         0.1567460962083576
                    ],
                    [
                         0.36316726713067193,
                         -1.774915412246758e-12,
                         -2.3898489380065345e-11,
                         0.2870419288513417,
                         0.0861928116179335,
                         5.71541712119383e-10,
                         0.17640927250874633,
                         0.3281601051341577,
                         -4.335569223668535e-11,
                         8.870388779429675e-06,
                         0.08706373529059042,
                         -3.811340614999084e-12,
                         -7.689270855652269e-11,
                         0.1995788009695644,
                         0.20571298126075294
                    ],
                    [
                         0.14589849009178138,
                         -3.2657557399193914e-13,
                         -4.608015383522255e-11,
                         0.11713124646162049,
                         0.039796204264336686,
                         4.700725136796852e-06,
                         0.07637061393664388,
                         0.13379932993529853,
                         -4.860138933572871e-12,
                         -8.37048166231535e-09,
                         0.04020754967412959,
                         3.5969564972519806e-10,
                         -1.2433938857054689e-05,
                         0.08464328021854879,
                         0.08754297574935999
                    ],
                    [
                         0.16161484402889253,
                         -2.752536130880887e-10,
                         -1.2370328484097632e-13,
                         0.12812256263560037,
                         0.0421283144145231,
                         -9.148972295302447e-08,
                         0.08204052114261419,
                         0.1474413174804652,
                         4.3302851006618976e-11,
                         1.4476763395688293e-11,
                         0.04256777397306891,
                         -3.488618982291719e-12,
                         -7.422124593991846e-13,
                         0.09129518140865771,
                         0.09449205304344067
                    ],
                    [
                         9.015961779007689e-09,
                         -6.603220387094766e-11,
                         6.577539057345582e-14,
                         1.0489607308087886e-12,
                         -2.912724598436889e-14,
                         -1.981354759567919e-05,
                         1.8535791668153213e-10,
                         -2.060599058761915e-12,
                         2.1665259646814374e-13,
                         1.1174727849795827e-05,
                         8.421899507816569e-11,
                         -2.399509678889659e-11,
                         3.696304951137691e-11,
                         -2.5801430866450866e-06,
                         3.1818358870607514e-13
                    ],
                    [
                         0.1939078286174513,
                         -3.130310879921459e-11,
                         4.2014804688184775e-12,
                         0.15316241886168291,
                         0.049267462041417215,
                         0.00016283597473858933,
                         0.0970597124065587,
                         0.17687262598866665,
                         3.00044740631943e-05,
                         -2.153400971423751e-09,
                         0.049780838434068775,
                         -4.358593247698771e-08,
                         -5.89669692345024e-11,
                         0.10835869866172478,
                         0.11212908415204882
                    ],
                    [
                         -3.2322177963185023e-12,
                         -5.245888953895791e-12,
                         -8.454872343682527e-09,
                         3.830001447419533e-10,
                         -6.244332082573514e-12,
                         2.612025085835863e-05,
                         -4.947349045329716e-10,
                         -5.0577693839024035e-08,
                         9.246053894699603e-09,
                         1.696389471790489e-12,
                         3.0303571647593145e-10,
                         -6.663738894231607e-09,
                         -3.0870067788812095e-10,
                         2.9878872823136536e-12,
                         -1.1664763961851894e-09
                    ],
                    [
                         1.2810281684623798e-06,
                         6.928818421095003e-10,
                         -8.201167103259501e-07,
                         -1.803610062537143e-05,
                         -1.7078305322349544e-05,
                         2.026130653191448e-13,
                         8.89938634766839e-10,
                         -2.4232163298128887e-10,
                         -4.917918726521079e-08,
                         -3.416189912787854e-12,
                         4.708885845814961e-09,
                         -3.318003220687751e-14,
                         -2.838369536268035e-09,
                         5.187151988918428e-10,
                         -1.0838358434099271e-11
                    ],
                    [
                         0.26245510158083313,
                         3.3383911848316713e-10,
                         -3.9779927483945705e-10,
                         0.20415945563233528,
                         0.06413752461500079,
                         -2.845537379345899e-06,
                         0.12859654122108086,
                         0.2369889168778256,
                         5.363241340442424e-07,
                         -2.26954e-319,
                         0.06479942204226014,
                         -1.9327115998792614e-12,
                         6.1234e-320,
                         0.14432425952869393,
                         0.14913671857909602
                    ],
                    [
                         0.16500468260425305,
                         1.2964653943754937e-12,
                         -1.9485136477838188e-08,
                         0.13097877191591822,
                         0.04317518303476123,
                         1.8527016478146386e-12,
                         0.08401799370388378,
                         0.15063920870819572,
                         -4.489570906820484e-10,
                         3.68643306048753e-12,
                         0.04362458997139655,
                         -2.7151750346605078e-08,
                         1.3775896203449127e-08,
                         0.0934779454523361,
                         0.09673323411580818
                    ],
                    [
                         0.13123709575967948,
                         -1.0322865942481173e-05,
                         2.8168428897237684e-08,
                         0.10376657730619324,
                         0.0342653034572265,
                         -4.752687767938682e-09,
                         0.06646075053627763,
                         0.11958809403241345,
                         2.472258841581475e-08,
                         1.0098979474741777e-13,
                         0.034625635455765726,
                         -7.460504462202601e-05,
                         2.5236510299686857e-07,
                         0.07386915595897525,
                         0.0765138423492374
                    ],
                    [
                         0.15183847336214393,
                         -2.04358564327737e-08,
                         -1.496845435569212e-06,
                         0.12193645888155756,
                         0.041380286179363165,
                         -1.1339398996932582e-06,
                         0.07948592286265033,
                         0.13927217163277972,
                         -1.1598538584885948e-07,
                         3.290197221972575e-05,
                         0.041807390966714715,
                         -3.400124038256639e-10,
                         5.908683954919041e-10,
                         0.08811932296889187,
                         0.0911263458639066
                    ],
                    [
                         0.18651379299327686,
                         -1.1629733000703165e-07,
                         -9.958932855311509e-10,
                         0.14980420901284783,
                         0.050319418728664675,
                         7.2423656131569776e-12,
                         0.09732849177005326,
                         0.17114762190858976,
                         -7.953994192484472e-07,
                         -3.4334914784555965e-10,
                         0.05083511626093596,
                         3.349780005066345e-11,
                         -8.15576386006435e-06,
                         0.10810731625746292,
                         0.11172588293086397
                    ],
                    [
                         0.2418910358932639,
                         -1.854046845015863e-08,
                         -2.297714730360498e-12,
                         0.19349918281892167,
                         0.06316301670462553,
                         -7.582279173083525e-11,
                         0.12414332537811694,
                         0.22200843262623723,
                         2.520167684474053e-10,
                         -8.581940302475335e-07,
                         0.06380612339934878,
                         -6.514501741041424e-09,
                         -5.507207991718422e-12,
                         0.13850680604696894,
                         0.14305561323937682
                    ],
                    [
                         0.14780602266781118,
                         -2.985139751025913e-11,
                         3.7990452525706896e-10,
                         0.1167530773481829,
                         0.038281722833324705,
                         -1.2692306068328434e-08,
                         0.07456116015979548,
                         0.13456090275605828,
                         -1.079432479978358e-12,
                         -1.49388200077987e-10,
                         0.038683389093867974,
                         0.00012120695067715571,
                         5.756889498291401e-05,
                         0.08297106493296591,
                         0.08592087858753193
                    ]
               ],
               [
                    [
                         0.795167411445598
                    ],
                    [
                         -8.460274776379188e-12
                    ],
                    [
                         2.2634763530608562e-11
                    ],
                    [
                         0.6280730209333636
                    ],
                    [
                         0.2151997872024126
                    ],
                    [
                         -2.1479626881847801e-10
                    ],
                    [
                         0.4068077644936507
                    ],
                    [
                         0.7233016157048295
                    ],
                    [
                         1.4844812239850088e-10
                    ],
                    [
                         -4.607909409439891e-12
                    ],
                    [
                         0.21750874219440058
                    ],
                    [
                         2.987082041475526e-07
                    ],
                    [
                         9.173279612527247e-13
                    ],
                    [
                         0.448919848676737
                    ],
                    [
                         0.4662597253681866
                    ]
               ]
          ],
          "split_point": 8
     },
     "nn_main": {
          "intercepts": [
               [
                    -0.11860294289457946,
                    1.8491684286191528,
                    1.6402270435171884,
                    2.0647563302432888,
                    2.0002266932116766,
                    2.1373917463896555,
                    2.389218762074251,
                    1.477848828675352,
                    2.1616462390349165,
                    1.5594897075032226,
                    2.053887084914961,
                    1.4156004117023306,
                    2.2539459174041734,
                    -0.32948847844798856,
                    -0.15193405627412135
               ],
               [
                    1.2484124302846156,
                    -0.011470133005048802,
                    -0.289120117346761,
                    -0.2537716646021391,
                    -0.06535794313119596,
                    1.1364246429736011,
                    2.0772459424760106,
                    1.4394188447270555,
                    -0.15641368662682203,
                    1.797311620499079,
                    -0.6532778297028138,
                    1.4227629280948284,
                    -0.4324097731065997,
                    1.7734506700022237,
                    2.0581320164299908
               ],
               [
                    1.5437341753065512,
                    2.704128832122891,
                    -1.040593345561018,
                    -0.13099467005034304,
                    1.4141460494619231,
                    1.7472946266966607,
                    1.569646058393373,
                    1.425852586988288,
                    2.2340163507771935,
                    1.6192636174843105,
                    1.8791964766292943,
                    2.620282316055571,
                    1.4158116242537935,
                    1.5506102000838586,
                    1.4393974985288598
               ],
               [
                    1.879918405536147,
                    -0.2524986946638696,
                    -0.33654319353715595,
                    1.8212271050531366,
                    -0.04173799796257338,
                    1.520327906773026,
                    1.8078297808339372,
                    1.8521696569406216,
                    1.504623525655955,
                    1.5660721374048125,
                    -0.7230645937073746,
                    1.599855033298227,
                    1.674286790553359,
                    1.5642851712936792,
                    1.6011440189411381
               ],
               [
                    -1.032631600058975,
                    -0.38179253750713205,
                    -0.15360916263718136,
                    1.8903631141097434,
                    1.4546826452343469,
                    1.6846123635393098,
                    1.569413086632004,
                    -0.03179665062643266,
                    -0.15351779330725346,
                    -0.4049594358840455,
                    1.655173698623908,
                    -0.4030978699099186,
                    -0.16705587586688905,
                    2.0911822410668712,
                    1.7181926383197623
               ],
               [
                    1.3344746016226114
               ]
          ],
          "coefs": [
               [
                    [
                         2.1483716141375797e-13,
                         0.0001287833215145418,
                         0.00013013239970757726,
                         0.00012744254019460123,
                         0.00012783873723391825,
                         0.0001270011125229087,
                         0.00012550317662884152,
                         0.00013122080038077214,
                         0.0001268527189327411,
                         0.0001306686074880311,
                         0.00012750872534372134,
                         0.00013164963877142205,
                         0.00012630150350992185,
                         1.1203681251962624e-13,
                         1.715834261470925e-14
                    ],
                    [
                         -3.1488678896220556e-10,
                         -9.159037014996115e-05,
                         -9.517016159598998e-05,
                         -8.819288037820106e-05,
                         -8.917790418757226e-05,
                         -8.71152773591466e-05,
                         -8.36202828748714e-05,
                         -9.812030842436308e-05,
                         -8.675905148428869e-05,
                         -9.662195606081676e-05,
                         -8.835644784469307e-05,
                         -9.927671541258405e-05,
                         -8.545183143243198e-05,
                         -1.1910611770573042e-11,
                         1.823503928037975e-12
                    ],
                    [
                         -5.202392670865513e-10,
                         -8.543265271853003e-06,
                         -8.353682782129896e-06,
                         -8.931437577344113e-06,
                         -8.797593112531572e-06,
                         -9.098076056009228e-06,
                         -9.788320336031943e-06,
                         -8.365118614650917e-06,
                         -9.157152188072827e-06,
                         -8.340182017662998e-06,
                         -8.907902498093207e-06,
                         -8.41208022214945e-06,
                         -9.397397150676754e-06,
                         5.053353266562069e-06,
                         5.025565610202117e-13
                    ],
                    [
                         -4.28014e-319,
                         -5.811006579145636e-06,
                         0.00013362917907804728,
                         -0.00015420313678927967,
                         -0.00010929042127492523,
                         -0.000205317332874141,
                         -0.00038751351459020836,
                         0.00023915597291733405,
                         -0.0002226955919221306,
                         0.00018640340646938804,
                         -0.00014662876646823124,
                         0.0002789667053289622,
                         -0.0002886794400506969,
                         -4.845051414921573e-09,
                         -5.7939844336904064e-08
                    ],
                    [
                         3.3322076138952755e-10,
                         5.431731823075468e-05,
                         5.533429993215732e-05,
                         5.356405402899166e-05,
                         5.3762554358865234e-05,
                         5.3364687576574316e-05,
                         5.284003835008085e-05,
                         5.637099262410226e-05,
                         5.3302458861967485e-05,
                         5.581987218574008e-05,
                         5.359588759911147e-05,
                         5.683488469116643e-05,
                         5.309211425252954e-05,
                         1.3660515875913155e-09,
                         1.2779265607284737e-09
                    ],
                    [
                         5.705427120226679e-07,
                         -1.4436240373930252e-05,
                         -0.00017910413447933785,
                         0.00016176927255462834,
                         0.00010834129506130095,
                         0.0002226777704010823,
                         0.00044064969930999645,
                         -0.0003030460139308514,
                         0.00024343974819859116,
                         -0.00024116708427248445,
                         0.00015275586162095053,
                         -0.00034963074384157137,
                         0.00032223807017464087,
                         1.776599699727008e-11,
                         -1.4450538096532483e-09
                    ],
                    [
                         -1.1647423440684177e-07,
                         -4.776117554187752e-05,
                         -4.831864401532815e-05,
                         -4.7592554750804e-05,
                         -4.760376554738069e-05,
                         -4.761674082782652e-05,
                         -4.7969555008367546e-05,
                         -4.905590668342227e-05,
                         -4.763298999443486e-05,
                         -4.865055832890199e-05,
                         -4.759220133143927e-05,
                         -4.94124804519985e-05,
                         -4.773103241741985e-05,
                         -4.992556725339223e-13,
                         -1.2097985466810656e-06
                    ],
                    [
                         3.553549059867333e-05,
                         0.00022115423548510428,
                         0.0001906268146044081,
                         0.0002535553084311525,
                         0.00024377287948300114,
                         0.00026464831941936317,
                         0.0003037006691829602,
                         0.00016762400576022913,
                         0.0002683959393866136,
                         0.00017910251785613807,
                         0.00025190598908881283,
                         0.00015900192012560405,
                         0.0002826208884362482,
                         0.00011762632247496992,
                         -1.7758995661529703e-05
                    ],
                    [
                         1.1360387820184982e-11,
                         0.00026953846317957916,
                         0.0002441865583157791,
                         0.00029119308876449367,
                         0.00028514057665206,
                         0.0002976248785134929,
                         0.0003174619418391231,
                         0.00022134084363122948,
                         0.0002997029913324773,
                         0.00023315600959195387,
                         0.00029019875410393184,
                         0.0002119347608380761,
                         0.0003072208356952797,
                         8.601362502988479e-08,
                         -3.347075384471851e-10
                    ]
               ],
               [
                    [
                         4.2052944850232524e-14,
                         5.205245111422239e-12,
                         5.454522026227247e-07,
                         -5.752363467105684e-05,
                         4.3524913840992735e-13,
                         -0.0001396121961283701,
                         -2.3173970020511946e-07,
                         -5.111789073298733e-13,
                         1.166377157652945e-12,
                         -1.2923993720463615e-06,
                         4.648196722037412e-11,
                         9.679859055569932e-10,
                         2.6628603943991428e-12,
                         3.22126e-319,
                         5.1072299475139196e-08
                    ],
                    [
                         0.03208169704879541,
                         -1.2232444700553034e-06,
                         3.0207353120845177e-06,
                         2.1540999792908734e-07,
                         7.274076339843698e-05,
                         0.02823263147911903,
                         0.07429253670970387,
                         0.03919093353554988,
                         2.984392419931477e-08,
                         0.06162068225250184,
                         -4.1974450453197246e-05,
                         0.03845934299964992,
                         -4.014667960999706e-11,
                         0.05931594510187694,
                         0.06765320356087585
                    ],
                    [
                         0.028315919055262567,
                         0.00020646196463762947,
                         3.8480215084351847e-07,
                         -1.6921423147983076e-07,
                         -1.190245514108423e-11,
                         0.024933330216788275,
                         0.06494574865746354,
                         0.03454738137316249,
                         8.426374341571743e-08,
                         0.053936251423650175,
                         -5.705947977056668e-10,
                         0.033908948763376114,
                         5.902585460164646e-05,
                         0.05196324467888954,
                         0.059314519147598346
                    ],
                    [
                         0.03598445416465989,
                         -4.7005294468195283e-07,
                         6.154030981136089e-05,
                         -4.946697852741926e-12,
                         -6.001941334961626e-08,
                         0.03164767713192242,
                         0.08420565861546296,
                         0.044016944288613954,
                         1.697173626020461e-05,
                         0.06975353040767533,
                         -1.6049841590837352e-05,
                         0.043186323455562343,
                         -1.3748128230130972e-06,
                         0.06708152498649116,
                         0.07643320264562897
                    ],
                    [
                         0.034814454899334185,
                         2.8681e-319,
                         -2.045666705417279e-09,
                         5.004019570534265e-12,
                         1.0350125462203311e-11,
                         0.03062434558157505,
                         0.0812081517837777,
                         0.04256868999827326,
                         1.1055699818022833e-11,
                         0.0672984144306259,
                         8.956382123455993e-07,
                         0.04176803294700067,
                         -6.006047972609909e-09,
                         0.06473686764087266,
                         0.07378499326497315
                    ],
                    [
                         0.037303291564932936,
                         -1.607205201957132e-10,
                         -1.83010488401107e-08,
                         -6.724084587119302e-05,
                         7.391818980590899e-06,
                         0.03280071717845669,
                         0.08761829915116107,
                         0.04565097298098266,
                         -2.21606616874037e-09,
                         0.07254277494823277,
                         5.663219400158214e-05,
                         0.04478628409722807,
                         4.775916701892523e-13,
                         0.06974120143806593,
                         0.07943276557211991
                    ],
                    [
                         0.04189103141898242,
                         -9.084047889006227e-07,
                         1.1814454605296426e-05,
                         7.432601363733652e-11,
                         -4.690198987453028e-09,
                         0.036807799845825794,
                         0.09976528044635233,
                         0.051348133039918475,
                         -8.311814269355644e-10,
                         0.08246149334564253,
                         1.8091966409417104e-08,
                         0.05036240449824636,
                         -2.2096e-319,
                         0.07915238595582015,
                         0.09000515396122137
                    ],
                    [
                         0.025400689483103797,
                         1.028482140018007e-12,
                         -8.44808234473771e-12,
                         1.3060889241374973e-06,
                         -1.7846209271226197e-05,
                         0.02237646322710938,
                         0.057848692052107985,
                         0.03096118936630256,
                         1.4537439060321534e-09,
                         0.04808740014654667,
                         1.3730010376392822e-08,
                         0.030393352732147397,
                         -3.5070053498122707e-07,
                         0.04635680808917414,
                         0.05294308404661099
                    ],
                    [
                         0.03774413747098687,
                         1.90654503503162e-09,
                         -1.1367776199983358e-10,
                         2.439924621954869e-09,
                         8.942256129151354e-12,
                         0.03318602872046338,
                         0.08879081333436067,
                         0.046197551576196906,
                         -6.5293329522148505e-12,
                         0.07348916079317168,
                         3.564358752486097e-12,
                         0.045321403025443914,
                         -1.396520697644574e-07,
                         0.07063770304170439,
                         0.08043546096069379
                    ],
                    [
                         0.026865175653036137,
                         -8.002439602566238e-08,
                         7.618784154306684e-07,
                         -9.071566773613724e-09,
                         -9.868142550966186e-14,
                         0.023661222577147405,
                         0.06139957480593215,
                         0.03276181877481686,
                         -2.188744371673441e-10,
                         0.05101517345268338,
                         4.31633205390164e-08,
                         0.032158678910349306,
                         -1.140270093041014e-08,
                         0.049164289494806376,
                         0.05613495056289097
                    ],
                    [
                         0.035787274458936286,
                         3.0883161878127633e-12,
                         -2.0468431964956397e-12,
                         -5.788481021387265e-11,
                         -1.0548917680039317e-10,
                         0.03147524264346606,
                         0.0837019237717866,
                         0.043772781467926174,
                         -1.2401581621272312e-07,
                         0.06934216648024355,
                         -1.5922670827224511e-06,
                         0.04294722726326854,
                         -1.8775077721325987e-12,
                         0.06668260878070775,
                         0.07598591306907676
                    ],
                    [
                         0.024285752783262355,
                         -1.756917660006326e-09,
                         7.809993036844978e-06,
                         1.7548240186493458e-11,
                         1.07346e-319,
                         0.021397951911561776,
                         0.055164225247813815,
                         0.029591571943381852,
                         1.155720014264257e-05,
                         0.045872087658094404,
                         9.058432494566736e-11,
                         0.029050398787676988,
                         5.6951604568899055e-09,
                         0.04423116559161691,
                         0.0505248012209054
                    ],
                    [
                         0.03942370470072258,
                         4.821708870772974e-09,
                         2.431183012732826e-06,
                         -2.9624072360492906e-11,
                         6.160085001170286e-09,
                         0.03465351127290249,
                         0.09316929258980348,
                         0.048281616896701726,
                         -3.80767e-319,
                         0.07709431333782489,
                         3.178646989977596e-13,
                         0.04736148450122726,
                         -1.0510349739816974e-09,
                         0.07406231254243133,
                         0.08429390578044435
                    ],
                    [
                         1.7902898069001844e-07,
                         -4.80513862965566e-12,
                         -0.00013825214590698008,
                         -2.6605475315324226e-11,
                         1.6083333968983736e-09,
                         -1.3750258291544376e-06,
                         -7.547931368453947e-07,
                         5.733253776972227e-10,
                         -4.7291e-319,
                         -7.498118419747339e-09,
                         5.3446213176417884e-08,
                         -3.96422341032882e-13,
                         -4.917036933591362e-10,
                         -1.5969273531866837e-09,
                         4.1014431053773064e-10
                    ],
                    [
                         -4.666254624667678e-12,
                         -1.9986223976644737e-08,
                         -0.00019503699692547205,
                         5.68865344236649e-07,
                         -1.9420572824200765e-11,
                         -2.1282764844288697e-12,
                         -3.3337607293061087e-06,
                         -2.4777040726432552e-08,
                         1.1914583601034857e-08,
                         3.80524e-319,
                         -3.5267180636023884e-12,
                         3.723943490236598e-05,
                         1.1574078316525434e-08,
                         9.31418620081004e-08,
                         1.2214313856164812e-11
                    ]
               ],
               [
                    [
                         0.03689865404842929,
                         0.09442179395889799,
                         2.2894179264944394e-09,
                         5.283998622122936e-07,
                         0.03308230276829337,
                         0.044792343743106394,
                         0.037713544340634994,
                         0.033237856542460274,
                         0.0671949615260252,
                         0.05069482089450782,
                         0.06156464350038851,
                         0.07505651997630527,
                         0.033268566392654665,
                         0.04193951079805558,
                         0.03477868409466901
                    ],
                    [
                         -1.1777687615825582e-09,
                         -7.594235004478915e-12,
                         -4.966635240835045e-13,
                         7.749027635736003e-05,
                         -2.050468691217422e-11,
                         4.41423431510048e-12,
                         -2.1075521756076405e-11,
                         -2.4129959474226506e-07,
                         6.512185554528809e-09,
                         -2.9318173092085254e-05,
                         2.077483478151002e-13,
                         -1.2764449802127107e-08,
                         -1.0998187807794875e-11,
                         3.0324192822753425e-09,
                         -0.0002166831317329222
                    ],
                    [
                         2.11213e-319,
                         1.0732654115048154e-11,
                         1.0650660352675294e-11,
                         1.742411098077351e-09,
                         6.319384549678412e-12,
                         7.831138993688979e-13,
                         3.1011595900245494e-05,
                         0.000139529624231461,
                         1.1551348859717882e-12,
                         9.40168680505132e-09,
                         -1.288759685628833e-08,
                         -1.3179358847859287e-10,
                         1.8802135790266753e-08,
                         0.00021569052886596818,
                         4.333312843788507e-13
                    ],
                    [
                         -1.079049958880685e-05,
                         7.421045995015695e-07,
                         4.588434193923521e-12,
                         -1.5052687925494682e-11,
                         -1.79395934718007e-06,
                         1.4405027354606158e-09,
                         -1.9159875429864762e-11,
                         1.89603e-319,
                         -5.689615943230782e-13,
                         -1.2632930201395553e-07,
                         -4.65104e-319,
                         8.8288949718078e-09,
                         4.553354121949832e-09,
                         -1.1336056950607176e-10,
                         9.103739437246048e-06
                    ],
                    [
                         4.19165e-319,
                         -5.795160372802972e-06,
                         -5.040508779392624e-11,
                         -2.1515616414418805e-11,
                         2.2850890030561312e-07,
                         1.9383e-319,
                         4.5968e-319,
                         2.2646559156402823e-08,
                         -8.221864346577237e-13,
                         -6.535204221225963e-12,
                         4.598028875634562e-13,
                         -6.246464174421867e-05,
                         -5.160470305631262e-13,
                         3.824041539364106e-05,
                         -1.1426590631844346e-11
                    ],
                    [
                         0.03295782982740814,
                         0.08374767977664413,
                         4.478619404379791e-05,
                         -1.5965351332750789e-12,
                         0.029557330018988,
                         0.03995834657262971,
                         0.03368299269891042,
                         0.029698954265695073,
                         0.05976439881745721,
                         0.045053688397306536,
                         0.054675154108709254,
                         0.0668115132643141,
                         0.02972113400191151,
                         0.037369653423812085,
                         0.031053738320834585
                    ],
